space_group,emb_000,emb_001,emb_002,emb_003,emb_004,emb_005,emb_006,emb_007,emb_008,emb_009,emb_010,emb_011,emb_012,emb_013,emb_014,emb_015,emb_016,emb_017,emb_018,emb_019,emb_020,emb_021,emb_022,emb_023,emb_024,emb_025,emb_026,emb_027,emb_028,emb_029,emb_030,emb_031,emb_032,emb_033,emb_034,emb_035,emb_036,emb_037,emb_038,emb_039,emb_040,emb_041,emb_042,emb_043,emb_044,emb_045,emb_046,emb_047,emb_048,emb_049,emb_050,emb_051,emb_052,emb_053,emb_054,emb_055,emb_056,emb_057,emb_058,emb_059,emb_060,emb_061,emb_062,emb_063,emb_064,emb_065,emb_066,emb_067,emb_068,emb_069,emb_070,emb_071,emb_072,emb_073,emb_074,emb_075,emb_076,emb_077,emb_078,emb_079,emb_080,emb_081,emb_082,emb_083,emb_084,emb_085,emb_086,emb_087,emb_088,emb_089,emb_090,emb_091,emb_092,emb_093,emb_094,emb_095,emb_096,emb_097,emb_098,emb_099,emb_100,emb_101,emb_102,emb_103,emb_104,emb_105,emb_106,emb_107,emb_108,emb_109,emb_110,emb_111,emb_112,emb_113,emb_114,emb_115,emb_116,emb_117,emb_118,emb_119,emb_120,emb_121,emb_122,emb_123,emb_124,emb_125,emb_126,emb_127,emb_128,emb_129,emb_130,emb_131,emb_132,emb_133,emb_134,emb_135,emb_136,emb_137,emb_138,emb_139,emb_140,emb_141,emb_142,emb_143,emb_144,emb_145,emb_146,emb_147,emb_148,emb_149,emb_150,emb_151,emb_152,emb_153,emb_154,emb_155,emb_156,emb_157,emb_158,emb_159,emb_160,emb_161,emb_162,emb_163,emb_164,emb_165,emb_166,emb_167,emb_168,emb_169,emb_170,emb_171,emb_172,emb_173,emb_174,emb_175,emb_176,emb_177,emb_178,emb_179,emb_180,emb_181,emb_182,emb_183,emb_184,emb_185,emb_186,emb_187,emb_188,emb_189,emb_190,emb_191,emb_192,emb_193,emb_194,emb_195,emb_196,emb_197,emb_198,emb_199,emb_200,emb_201,emb_202,emb_203,emb_204,emb_205,emb_206,emb_207,emb_208,emb_209,emb_210,emb_211,emb_212,emb_213,emb_214,emb_215,emb_216,emb_217,emb_218,emb_219,emb_220,emb_221,emb_222,emb_223,emb_224,emb_225,emb_226,emb_227,emb_228,emb_229,emb_230,emb_231,emb_232,emb_233,emb_234,emb_235,emb_236,emb_237,emb_238,emb_239,emb_240,emb_241,emb_242,emb_243,emb_244,emb_245,emb_246,emb_247,emb_248,emb_249,emb_250,emb_251,emb_252,emb_253,emb_254,emb_255,emb_256,emb_257,emb_258,emb_259,emb_260,emb_261,emb_262,emb_263,emb_264,emb_265,emb_266,emb_267,emb_268,emb_269,emb_270,emb_271,emb_272,emb_273,emb_274,emb_275,emb_276,emb_277,emb_278,emb_279,emb_280,emb_281,emb_282,emb_283,emb_284,emb_285,emb_286,emb_287,emb_288,emb_289,emb_290,emb_291,emb_292,emb_293,emb_294,emb_295,emb_296,emb_297,emb_298,emb_299,emb_300,emb_301,emb_302,emb_303,emb_304,emb_305,emb_306,emb_307,emb_308,emb_309,emb_310,emb_311,emb_312,emb_313,emb_314,emb_315,emb_316,emb_317,emb_318,emb_319,emb_320,emb_321,emb_322,emb_323,emb_324,emb_325,emb_326,emb_327,emb_328,emb_329,emb_330,emb_331,emb_332,emb_333,emb_334,emb_335,emb_336,emb_337,emb_338,emb_339,emb_340,emb_341,emb_342,emb_343,emb_344,emb_345,emb_346,emb_347,emb_348,emb_349,emb_350,emb_351,emb_352,emb_353,emb_354,emb_355,emb_356,emb_357,emb_358,emb_359,emb_360,emb_361,emb_362,emb_363,emb_364,emb_365,emb_366,emb_367,emb_368,emb_369,emb_370,emb_371,emb_372,emb_373,emb_374,emb_375,emb_376,emb_377,emb_378,emb_379,emb_380,emb_381,emb_382,emb_383
P1,-0.10290257,-0.01688954,-0.08701807,-0.036201537,0.027093811,0.023616364,0.08335741,0.021384014,0.013953303,-0.07019836,0.065330155,-0.026963433,-0.037350986,0.016851418,0.019513426,-0.09581307,0.012005909,-0.01469046,0.04653141,0.054152586,-0.02540598,-0.08088709,0.04312568,0.050764848,0.029507283,0.027036402,0.015226043,0.086489946,0.14497064,-0.057842296,0.014422638,0.040842205,-0.020570328,0.10577764,0.06206044,0.06317788,-0.053208057,-0.0011028477,-0.041690856,0.028814541,0.044900354,0.010250185,0.023380985,0.006876028,0.04979552,0.007975938,0.0010381534,0.0021483165,-0.07591059,-0.06488745,0.015594793,0.04027289,-0.06682844,0.0032639273,-0.0493548,0.010051298,-0.0374555,-0.03119705,0.07104205,-0.06064891,0.037438508,-0.031203866,0.002982335,0.02900817,-0.018684855,0.036778934,0.028543992,-0.037201576,0.05689186,0.029666027,-0.034340333,0.0079103885,-0.03284668,-0.0011827584,0.01065941,-0.018008469,0.011901323,-0.025881287,-0.087536685,-0.09159517,-0.01390747,0.025789626,0.023196183,0.07318172,-0.03492327,-0.0033124313,-0.072140895,0.019992286,0.072760455,-0.05991295,0.12820125,0.026162736,-0.018335229,0.024643257,-0.058839932,0.026701936,-0.0036867422,0.03679902,-0.025627121,-0.010693283,0.056773905,0.012910067,0.029057031,0.04016227,-0.001384535,0.054117177,0.0008814312,-0.031378202,-0.017017886,0.031504508,-0.07083693,-0.083578505,0.008383625,-0.098958105,-0.054042436,-0.049179982,0.04885629,0.0381286,0.08244509,0.016659154,0.02007547,-0.045940746,0.0024976712,0.02561419,-0.06533804,-0.017138401,-0.07827848,1.0007585e-34,0.019451,0.073616,0.023713384,0.011308189,-0.0010241768,0.00092806143,-0.020557014,-0.13338251,-0.071741916,-0.019858995,-0.04275149,-0.018509746,0.009421614,-0.023246974,-0.0035812813,0.0055466085,0.012885754,-0.038289975,0.0200346,-0.003970077,0.034872737,0.12705319,-0.032093592,-0.012549996,0.024461979,0.027367687,0.055597156,-0.0056720255,-0.040074393,0.027221141,-0.08299037,-0.009854137,0.012738194,0.055265266,0.031126767,0.0110180015,-0.050972223,-0.037036885,0.04660447,-0.105210535,-0.024614317,-0.038017135,0.005986439,-0.012152741,0.067913376,-0.063805096,-0.00065050134,0.20555837,-0.005361922,-0.067920364,0.021022348,0.05372775,-0.12433111,0.014998055,-0.059519906,0.014543364,-0.027464792,0.014269013,-0.035977133,0.068650015,0.10222536,0.011798435,-0.027133666,-0.026759284,-0.032883614,-0.041567594,-0.11294238,-0.06976064,0.103732035,-0.0023407387,-0.107490145,0.044014197,0.01780389,0.0865035,0.07387146,-0.0039980044,0.023441125,-0.10015985,0.046841487,0.028205406,-0.14520483,-0.0180606,-0.0074926177,0.020026736,-0.077067874,-0.060794465,0.04156902,-0.076433465,0.009851955,-0.06473243,-0.009480284,-0.002786878,0.043276608,0.0231911,-0.10235794,-8.383458e-34,-0.06739561,-0.0012732781,-0.055437673,0.06380297,-0.07856406,-0.01447459,0.0011828736,-0.07118636,0.015684556,0.05467205,0.042011566,0.0025194443,-0.03392,-0.08613192,0.033696327,0.0047054337,0.039551333,-0.06491725,-0.026978929,0.02838404,0.029938646,0.0043965112,-0.02197331,0.012728161,-0.063041165,0.056571014,0.011408435,0.058408625,0.04759345,0.10815332,0.025712946,-0.0073044603,-0.011132076,-0.03415267,-0.052443963,-0.055313088,-0.0047177505,-0.014502192,-0.043230757,0.018145412,0.0514947,0.026260994,0.017623741,0.049812905,0.075064145,0.043035064,0.12307104,0.06969431,-0.08898674,-0.053806774,-0.032807622,0.01863007,0.032451328,0.04221398,0.043207187,0.009987816,-0.030466553,0.031296358,0.01769931,-0.08351239,0.02870055,-0.0053766756,0.0023306957,0.032348968,0.108936094,-0.03214959,0.02285862,0.026609221,-0.02819301,0.011353215,0.05114823,0.06519718,-0.015832854,-0.09951343,-0.016387226,0.024028765,0.053870715,-0.008396891,0.027392708,-0.0849715,-0.01234662,0.05680788,-0.030000139,-0.015829414,0.029546984,-0.032175288,0.028480418,0.104301035,0.09760471,-0.047271024,0.0074510365,0.011648431,-0.021656843,0.06529398,0.054034423,-2.3413744e-08,-0.052842826,0.02902978,-0.051194094,-0.055130865,-0.013400093,-0.038839962,0.032857988,0.0064507793,-0.0155657,0.012254066,0.011474535,0.0068495064,-0.05995054,-0.0696636,0.034822688,0.1427282,-0.024026547,0.10874207,-0.013918546,0.010092373,0.029616497,0.018418286,-0.031072417,-0.04246967,-0.13345578,-0.032875746,-0.058047693,-0.030062733,0.044217184,-0.055788204,0.04972096,-0.017372338,0.12454669,0.0075671454,0.049673423,0.060132876,-0.034760896,0.00804285,0.021017557,0.047235366,-0.02683258,0.0012515439,-0.0062430333,-0.022832023,0.026677012,0.035980865,0.019815683,0.02100119,-0.01096301,0.030203583,-0.03261972,0.043295883,-0.06225703,-0.039765965,-0.080930084,-0.003032966,-0.058391917,-0.022913944,0.055604495,-0.026806846,-0.067521885,0.007795733,-0.057428204,0.05890254
P-1,-0.10712419,-0.02729209,-0.107289135,-0.03806767,0.016039142,0.024335919,0.018307893,0.027988862,0.041413333,-0.014671577,0.094408914,-0.005839319,-0.053244602,0.0321003,0.021705316,-0.08535719,-0.02831899,-0.021685338,0.07887881,0.07863443,-0.035711627,-0.11347226,0.047204416,0.0392632,-0.011288505,0.055376105,0.05217131,0.07533475,0.13853012,-0.073473305,0.03164062,0.07662784,-0.04593011,0.061891098,0.034458287,-0.0015501634,-0.04375232,0.018222218,-0.04681751,0.018783737,0.051114116,0.011727004,0.03769493,0.015414055,0.0696052,0.023786718,-0.024548864,-0.01739365,-0.06184354,-0.05432616,0.018113269,0.019103663,-0.05882269,0.0043198303,-0.053744707,0.022716343,-0.05281876,-0.026231177,0.07711571,-0.03480305,0.11082268,-0.02885514,-0.046478063,0.014855541,-0.04389945,0.0421644,-0.010762291,-0.05868362,0.02895106,0.055826873,-0.030211546,0.02097044,-0.036412276,-0.04794681,0.042757887,-0.012373254,0.035363134,-0.044700578,-0.10202258,-0.09054228,-0.021441601,0.037721485,0.015945477,0.086868115,-0.035939604,-0.025793267,-0.114870675,0.03902766,0.033660386,-0.07298696,0.09788631,0.038632568,-0.019082857,-0.02108605,-0.04045035,0.04047986,0.002467614,0.01826771,-0.023012282,-0.017486006,0.06209327,-0.022355862,-0.009010529,0.028216995,0.044147354,0.049102295,0.0017322258,-0.0357661,0.02122245,0.0320779,-0.06540085,-0.042729743,0.0044302754,-0.077696614,-0.014901441,-0.007285867,0.04749874,0.051649373,0.087702975,0.028900538,0.034096055,-0.030423788,-0.00090256805,0.017383749,-0.03539049,0.0021827926,-0.08145735,3.1052375e-34,0.025447017,0.099346384,0.04795484,0.016596483,-0.02616226,-0.032870196,-0.04449424,-0.14172861,-0.004917608,0.026410678,-0.069930255,-0.009412598,0.027875818,0.00015126941,0.009828339,-0.015839724,0.018203223,-0.01796006,0.0014455114,-0.02721188,0.016536126,0.13312285,-0.00907482,-0.020755386,0.028699718,0.044426795,0.04282588,0.0017946678,-0.042059213,0.038193766,-0.027554873,-0.025504185,-0.012239145,0.03043805,0.016804561,0.009410756,-0.08593465,-0.019135892,0.0485698,-0.060003534,-0.035533078,-0.031807516,0.00971926,-0.013526995,0.047072902,-0.06872545,0.046828676,0.1727296,-0.0064219204,-0.033119153,0.027950449,0.054500286,-0.119173095,0.019894598,-0.033076502,0.0238635,-0.012742234,0.008708586,-0.029376255,0.048868123,0.11081307,0.021244507,-0.05711512,-0.07497366,-0.04921,-0.05759423,-0.07644971,-0.0923538,0.07816115,0.014094814,-0.08837746,0.05464487,0.01908497,0.052096404,0.06857335,-0.01350323,0.043302633,-0.061176777,0.06663378,0.03734173,-0.13480084,-0.02474961,-0.013123182,-0.05060035,-0.08351566,-0.06910679,0.029430594,-0.064899705,0.0010368485,-0.06197106,-0.03771551,0.0021809998,0.03712676,0.033430304,-0.08813903,-1.32814175e-33,-0.06752459,-0.004591655,-0.07490591,0.03261731,-0.07478309,-0.01782947,0.026747206,-0.06702939,-0.043822363,0.018785601,0.06786313,0.02728055,-0.011204492,-0.068332024,0.08565127,0.027183004,-0.00667157,-0.026090953,-0.011429365,-0.025193503,0.077050425,0.0010805051,0.0062333583,0.021699823,-0.03752872,0.058851514,0.012333249,0.014084255,0.0450894,0.11252859,-0.0015081642,-0.035500832,-0.0013948574,-0.034374204,-0.039157264,-0.05923839,-0.05771666,-0.034786668,-0.08719806,0.02252434,0.015429091,0.02942607,0.04722082,0.08270757,0.06430407,0.022120828,0.10806638,0.07262665,-0.096315734,-0.043441672,-0.06371021,0.025522742,0.04847296,0.03571322,0.03869174,0.0069067334,-0.06966811,0.011503931,0.037269354,-0.032023203,0.03669034,-0.017892838,-0.051958982,0.01916431,0.08525349,-0.017235424,0.052940905,0.015902936,-0.043534555,0.047250584,0.040382434,0.06277449,-0.022516506,-0.10976219,-0.05205508,0.020082735,0.046091307,-0.006612674,0.021227738,-0.085498914,-0.026625713,0.043865677,-0.012848868,0.0058697755,0.004596832,-0.03432388,-0.009065454,0.097910024,0.11646344,-0.024971852,0.0054846196,-2.663969e-05,0.008444943,0.06607579,0.079220235,-2.9110348e-08,-0.057962697,0.030215356,-0.0030377833,-0.017698932,-0.032598656,-0.04517593,0.035677426,0.021820541,-0.02674874,0.017154053,0.004731177,0.004791053,-0.075477965,-0.039592005,0.03468316,0.1353912,0.006523253,0.10675449,0.007989745,0.009470219,0.041083492,-0.007404745,-0.026170582,-0.05959604,-0.14019687,-0.015108148,-0.050733704,-0.023775542,0.02287689,-0.014268629,0.033468246,-0.02871959,0.101707555,-0.020759538,0.02434064,0.04677124,-0.06726265,0.0047039376,0.011949653,0.019307373,-0.04839598,0.051256176,-0.0038574971,-0.009345268,0.043467477,0.07353959,0.03565401,0.030049695,-0.022279846,-0.021827364,-0.066784434,0.022706848,-0.043434747,-0.0196874,-0.079729006,0.015730457,-0.046146754,-0.008381222,0.06214774,-0.055438522,-0.024351627,0.0006978512,-0.07926324,0.05989285
P121,-0.11124618,-0.05298255,-0.11686055,-0.06319299,0.008167481,-0.011599799,-0.013407477,0.00927179,0.088393845,0.0064459154,0.081455894,0.04768293,-0.05546971,0.018329542,0.05408026,-0.08375354,-0.04838345,0.033588786,0.04462523,0.09583429,0.0009544499,-0.08935875,0.045272056,0.062748626,0.02826584,0.038566355,0.030798351,0.02366633,0.11469096,-0.062164135,0.0065945126,0.075043745,0.0028645042,0.030938126,0.03526624,-0.010012823,-0.05754391,0.023223452,-0.071016505,0.010784691,0.022177985,0.008524496,0.08430989,-0.004072647,0.062177885,0.050235387,-0.04678857,-0.051038727,-0.04598809,-0.06918472,0.03232568,-0.01656689,-0.08210445,0.029858753,-0.015660306,0.0088803405,-0.09627395,-0.02992204,0.065048695,-0.04963576,0.08721324,-0.027470578,-0.032758515,0.019990189,0.0016582537,0.06515164,-0.0231123,-0.052277423,0.03645456,0.046853926,-0.062035717,0.035434436,-0.024638994,-0.011309998,0.054514486,-0.0034275933,0.07392554,-0.0365,-0.060007107,-0.0692695,-0.05171635,0.033617273,-0.0036363176,0.13021258,-0.0036058691,-0.04637203,-0.09889013,0.034249276,-0.03438879,-0.07148601,0.03962235,0.06156864,-0.06623297,-0.07333244,-0.029157294,0.07501672,0.01430377,-0.016512647,0.005210648,0.017885646,0.08161857,0.012638102,0.037529863,0.014719457,0.040523227,0.054248676,-0.031302143,-0.040811885,-0.0027078001,-0.0022435389,-0.05682036,-0.028871426,-0.05350109,-0.098187126,-0.0057416623,-0.041651268,0.010387283,0.026838163,0.076068126,0.050602715,-0.004193275,-0.015623757,-0.0052437396,-0.012228722,-0.042787395,0.045226064,-0.09260288,9.104093e-34,0.0030120264,0.082312614,0.04325437,-0.013398395,0.015554139,-0.008704676,-0.04508305,-0.109188475,0.012057825,0.0436344,-0.053464495,0.008666541,0.051049594,0.008424066,-0.0067167906,-0.053512856,0.010570997,-0.0034306592,0.02774935,-0.08328384,0.004908987,0.10176553,0.008566552,-0.017100418,-0.01493888,0.03489398,0.06470228,0.0045688394,-0.04403042,0.03290758,0.033660743,0.0040089716,-0.097956896,0.011423483,-0.008065028,-0.00022008241,-0.08172947,-0.091952786,0.054047044,-0.06309012,0.0138048995,-0.035056617,-0.03672135,-0.0043983315,0.059935395,-0.016988082,0.06651869,0.12446172,0.01842128,-0.028386898,0.04179073,0.047700565,-0.07846441,-0.016429398,0.022917047,0.046298567,0.02245139,0.009021786,-0.06479604,0.03708013,0.06338128,0.027682936,-0.05864976,-0.080971174,-0.03577271,-0.007878234,-0.073281765,-0.039803773,0.06648907,0.011694068,-0.047259487,0.034414586,-0.042321917,0.06239251,0.03259658,0.018236566,0.02302919,-0.031350613,0.059331536,0.058070775,-0.14287046,0.025733275,-0.056405824,-0.025557162,-0.13411984,-0.025637327,0.032406274,-0.11808444,-0.0028470615,-0.04336543,-0.015529563,-0.023272665,0.025609724,0.072008334,-0.12377935,-1.8705318e-33,-0.07357059,-0.02774976,-0.050003108,0.037337806,-0.043637786,-0.011285016,0.02741674,-0.051206995,-0.030390518,0.016412871,0.085740454,0.028220277,-0.015611403,-0.075014554,0.097812034,0.017480912,-0.02631498,-0.022388427,0.022536898,0.006215389,0.11535175,0.055001404,-0.033696424,0.06898698,-0.02800347,0.049798567,0.01194252,0.0055165445,0.024159886,0.12415279,-0.0022265096,-0.022528931,0.025878314,0.0019925842,-0.055218503,-0.07363964,-0.05526228,-0.053460237,-0.07828731,0.025170151,0.0061600204,0.058567617,0.053668663,0.086489856,0.046664096,0.03926765,0.10754134,0.10070925,-0.043698713,-0.02328057,-0.07222373,0.008356102,0.039969906,0.010734446,0.039625295,0.018938633,-0.040710837,-0.019247152,0.054929648,-0.0028130945,0.022784108,-0.018940477,-0.014906722,0.030702798,0.0516656,-0.019114284,0.065758854,-0.03439061,-0.01744225,0.03729689,0.05193179,0.044466924,-0.023048908,-0.11204066,-0.0067979894,0.03138895,0.043685373,0.013910333,-0.01882581,-0.090427935,-0.014847886,0.02606834,0.017813848,0.03199055,-0.02192566,-0.031278674,-0.0047668377,0.08364652,0.10675918,0.0076348963,-0.02271189,0.049959555,-0.014583343,0.10173603,0.07352682,-3.3017294e-08,-0.044330064,0.06354685,0.030526102,-0.019849863,-0.05656935,-0.018699873,0.0064973473,0.0124882,-0.03471674,0.031126305,-0.011435058,-0.03184279,-0.09000955,-0.062706225,0.0060299695,0.10225276,0.0038619898,0.08604506,-0.010167317,0.008516997,0.033648655,0.014503296,0.017609285,-0.07098798,-0.08016083,-0.026679527,-0.08237778,0.025242852,0.030066308,-0.008799443,0.030340787,-0.00716567,0.10541328,-0.041440833,0.0079356,0.06766721,-0.064240895,-0.031373043,0.015246061,0.03822106,0.00019583265,0.020367485,-0.04560429,-0.018560804,-0.014165338,0.081523724,0.0056245397,0.021283895,-0.07282642,-0.025053399,-0.04190793,-0.017868776,-0.047773488,0.035896745,-0.09794151,0.04741082,-0.04749226,-0.033756632,0.05050799,-0.02668501,0.009519178,-0.029624388,-0.067363456,0.04734392
P12_11,-0.08209935,-0.0003959249,-0.070876755,-0.063162826,-0.007362865,0.016301706,-0.021062491,0.014734426,0.042524353,-0.016443802,0.06760512,0.042182844,-0.0812833,0.022389788,-0.00021037651,-0.047751937,-0.056211162,0.010424016,-0.011131889,0.07548428,0.0032586749,-0.116656676,0.0664218,0.034721587,0.021525707,0.025784427,0.030737722,0.019696,0.111498736,-0.055539638,0.037676267,0.04680448,-0.028660066,-0.010545752,0.044172525,-0.02370943,-0.02323071,0.02095702,-0.0027923821,-0.00357947,0.029674625,-0.0127656665,0.09094535,0.02048018,0.04528486,0.020241117,-0.01722953,-0.016549358,-0.022790872,-0.072624385,0.025391718,0.02338384,-0.10160831,0.00853092,-0.042813253,0.005170463,-0.10978574,-0.0538962,0.08892541,-0.054365575,0.1190178,-0.027985256,-0.02517675,0.025391556,-0.03759527,0.073896416,-0.009928736,-0.07507425,0.023318302,0.03930998,-0.022487186,0.06262912,-0.023083951,-0.04193818,0.088187985,-0.004035786,0.05721365,-0.05904291,-0.060902752,-0.056126915,-0.04268322,0.055456467,0.024156453,0.08615936,0.01408475,-0.03456055,-0.06391507,0.024219656,0.026138995,-0.06278385,0.042785216,0.06097629,-0.06973959,-0.09010975,-0.014229941,0.059758015,0.046407074,-0.013097998,-0.03271273,0.02848892,0.0809992,-0.005982015,0.007630499,-0.0135643305,0.011646067,0.07438109,-0.011201223,-0.024082417,-0.007783796,-0.0242698,-0.050965697,-0.032626823,-0.0742249,-0.08380917,0.011296129,-0.05224281,-0.014508374,0.03534114,0.049633063,0.03409579,0.016187178,-0.013218523,-0.015443322,0.0063991062,-0.052612133,0.05707311,-0.11988783,2.5245361e-33,0.06525671,0.08309616,0.07239748,0.011775936,0.02443398,-0.019847937,-0.038375672,-0.09364861,-0.01258545,0.045322202,-0.055276617,-0.015107386,0.07497689,0.0024748466,-0.016088903,-0.0407433,0.043664556,-0.011550567,0.061321687,-0.079670146,-0.01557638,0.114141546,-0.018993577,0.025991596,-0.021609854,0.03248849,0.072279386,0.023224624,-0.018390104,0.047411505,-0.0065633096,-0.020942442,-0.08618092,0.028696682,0.015592694,-0.038771447,-0.06568837,-0.051186424,0.08163945,-0.12274011,0.037857503,-0.015742661,-0.03714446,0.03191275,0.07573638,-0.038220875,0.07445281,0.081080765,0.052166965,-0.030610176,0.005925722,0.04257319,-0.0626768,-0.0052470844,-0.018656975,0.044103187,0.029833142,-0.010138415,-0.045525715,0.048503634,0.09127664,0.032332513,-0.052406106,-0.041555416,0.014205834,-0.023272669,-0.030062472,-0.0746232,0.073473774,0.0021791463,-0.050236978,0.0146463085,-0.006079873,0.061939634,0.04677504,0.0069538765,0.04223436,-0.08943635,0.07822063,0.07212681,-0.09278424,0.03479507,-0.059900366,-0.05961612,-0.11127802,-0.028831322,0.021796737,-0.12531751,0.005187282,-0.023235831,-0.008969558,-0.06775943,0.019958781,0.054720286,-0.095111415,-3.707718e-33,-0.075016454,-0.0208584,-0.047835346,0.027481647,-0.04905208,-0.03698427,0.04477261,-0.036712475,-0.00784828,0.040736817,0.12592074,0.0025899096,-0.033549353,-0.05323127,0.101778366,0.043916646,-0.027586617,-0.0059927357,0.041520882,-0.013162013,0.10153679,0.05225674,0.014392489,0.04482685,0.0036216173,0.023791691,0.049954593,-0.00881219,0.016573098,0.13566141,-0.010470134,-0.008521468,-0.011152604,0.021626683,-0.062951095,-0.09114798,-0.039872307,-0.049759533,-0.04710486,0.02340432,0.010455161,0.0015329331,0.046067752,0.08945412,0.05772152,-0.018529104,0.08491794,0.09641033,-0.05311304,-0.01573076,-0.07371924,0.0051308516,0.0178431,0.002642418,0.031315416,0.0025947324,-0.03397521,-0.00743787,0.04160954,-0.00059148204,0.02003503,-0.023555992,0.0088890195,0.030930707,0.05835428,-0.026468715,0.056205817,-0.058350347,-0.058837518,0.06058088,0.035931364,-0.00988165,-0.020595929,-0.0943005,0.012993491,0.017452983,0.04673145,-0.011403884,-0.012565989,-0.06277897,-0.046547066,0.0063204193,0.017157238,-0.009103389,-0.04588731,-0.069970734,0.045511298,0.13662252,0.111054435,0.04741635,0.01875104,0.024019567,0.024716059,0.06921585,0.09896986,-3.359828e-08,-0.025806567,0.06477787,0.019866792,-0.06013586,-0.049250796,-0.02228115,-0.024222115,0.0118557,-0.016933398,0.017850062,0.0069291964,0.011072747,-0.094582506,-0.028908594,-0.026068171,0.09251461,-0.027913332,0.057507508,-0.024150783,-0.004365058,0.03890771,0.012241503,0.033247788,-0.08788226,-0.11993031,-0.037654944,-0.07277036,-0.0054725534,0.004838105,-0.0312929,0.062906526,-0.032332443,0.09445314,-0.12711889,-0.015545604,0.08257062,-0.04409979,-0.026270349,0.0042338325,0.0454113,0.012070874,-0.014309411,-0.028446477,-0.026487768,-0.004998767,0.06319395,-0.03618857,0.035150982,-0.054394532,-0.015439759,-0.08282282,0.010037696,-0.05180331,-0.00494849,-0.09784723,0.0143227745,-0.024138961,-0.0149382055,0.060546678,-0.027937805,0.0020549512,-0.007347475,-0.08819264,0.026264535
C121,-0.12781528,-0.03329915,-0.08417493,-0.035123855,0.02699962,-0.019459086,-0.030109001,0.033506885,0.031991217,0.013125395,0.07330227,-0.02776217,-0.0683181,0.022029737,-0.023090418,-0.08236751,-0.032144375,0.033471026,0.0065671545,0.05245227,-0.0512315,-0.08336647,0.0003583538,0.03237933,0.00983202,0.030596148,0.016967671,0.007957592,0.06259564,-0.08386001,0.057288222,0.07036821,0.007599398,0.039135147,-0.059070405,-0.027912285,-0.036218133,0.024914285,-0.03780443,-0.028146284,-0.03741137,0.009717192,0.07821251,0.04608463,0.025411889,0.0143926265,-0.07565988,-0.016653318,-0.026189623,-0.05623095,0.012280395,-0.083253175,-0.0983812,0.0168286,0.011032082,0.013008694,-0.11675035,-0.04489595,0.11391906,-0.037181173,0.07309725,-0.06639217,-0.044555496,0.023060039,-0.029929744,0.054594137,0.0069173356,-0.055637147,0.032691266,0.043086447,-0.03499417,-0.014908976,0.002559422,-0.021660598,0.046663705,0.0016211283,0.05185232,-0.05192449,0.051478367,-0.056805458,-0.06326213,0.08836928,0.011784525,0.08761976,-0.036861952,-0.015137298,-0.028651893,0.023049138,0.016708247,-0.061476514,0.02129202,0.07630786,-0.06146843,-0.114687316,-0.12290922,0.050001122,0.019440044,0.043647666,-0.02837395,0.04888072,0.07167435,-0.036687408,0.05356673,0.011075394,0.036148895,0.007435044,0.008825765,-0.009634573,0.011286387,-0.027386382,-0.049271315,0.03823656,-0.11405786,-0.08978058,0.019376552,-0.045165516,0.015562243,0.022416757,0.082257256,0.023711672,0.022850411,-0.022344368,-0.005196297,-0.07367925,-0.069794774,0.05674004,-0.08255848,1.401885e-33,-0.031840462,0.08996693,0.028989296,0.014414757,0.038472343,-0.041393477,-0.018232241,-0.048092697,0.0044227196,0.06097877,-0.09442593,0.037142843,0.010183197,0.0018161467,-0.01838433,-0.05774241,0.02459022,-0.015067097,-0.011973933,-0.09573594,-0.0228904,0.11746262,0.030399831,0.004762624,-0.0010596999,0.0056095296,0.060742997,-0.012997655,0.009726194,0.044136684,0.016450029,0.05984931,-0.04425747,0.0062490455,0.068854086,0.035211504,-0.053304233,-0.055428367,0.09627172,-0.033872284,0.017252898,0.0033674873,-0.05426686,0.035104096,0.059917092,0.0042513846,0.023662543,0.10781405,0.061068755,-0.026985455,-0.006892412,0.0395057,-0.053673923,0.008422052,0.016593164,0.08574762,0.034168407,0.010062784,-0.051860325,0.029781476,0.05640282,0.02577695,-0.057233356,-0.0720187,-0.010059527,-0.014876534,-0.09952688,-0.046872143,0.0410495,-0.015996521,-0.035977386,0.024088806,0.012511075,0.06401291,0.018439988,0.02772311,0.0644589,-0.026401501,0.0139831,0.05625714,-0.13122906,0.044745333,-0.06759605,-0.06942509,-0.102330275,0.026126698,-0.0037638426,-0.10967364,-0.0131262895,-0.026096202,-0.02918436,-0.06729092,0.05388284,0.027539525,-0.14400037,-1.9352637e-33,-0.055048726,-0.044756975,-0.05901249,0.03493817,-0.009710753,0.022322435,0.064489834,-0.04060446,-0.037681572,0.02378794,0.13764419,0.024406118,-0.0040534935,-0.00813832,0.09488782,0.00063160027,-0.011790258,-0.018569412,-0.019624084,0.0044498644,0.08841615,0.012049517,-0.033295788,0.047663372,0.026337981,0.07471653,0.021205924,0.005079904,0.060250454,0.11049584,-0.001308461,-0.049002744,0.043010727,0.02755663,-0.0075317426,-0.07112154,-0.04050333,-0.052075844,-0.06794172,-0.006159042,-0.029128948,0.038264904,0.05430585,0.10445097,0.03412705,0.033270705,0.051496506,0.08352802,-0.07612962,-0.07457973,-0.03921687,-0.020180237,-0.013633797,0.026463302,-0.032495864,0.02955514,-0.0006393162,0.013735613,0.06666336,0.024479194,0.03655795,-0.02043185,-0.01178106,-0.02890871,0.05450718,-0.03904394,0.06105732,-0.05046108,-0.012367835,-0.0018887527,0.06364677,0.023384701,-0.002336425,-0.10436799,-0.016012207,-0.014359051,0.08848679,-0.008578316,-0.0047157933,-0.03238871,-0.009117806,0.048316125,0.0261221,0.04111644,-0.0047866576,-0.037121914,0.00023207528,0.055137552,0.12620324,0.07830887,-0.05328322,0.05267964,-0.02568752,0.060598385,0.07891495,-3.4969894e-08,-0.011148522,0.02740805,0.008440691,-0.058790427,-0.033274945,-0.02018785,0.012098486,-0.06256487,-0.022099566,0.04383505,0.011076225,0.005512902,-0.08370825,-0.049872134,-0.06705555,0.08335454,-0.04643239,0.13274734,0.008553146,0.013291247,0.013313278,0.0107199475,0.0488044,-0.073695816,-0.05948856,-0.086919576,-0.06650836,0.09181501,0.004029726,-0.02543237,-0.0046101557,0.015052085,0.13505775,-0.029320423,0.04054285,0.07948075,-0.07060611,-0.017732577,0.0071231853,0.03246353,0.027277024,0.017159978,-0.0054984083,-0.0020836184,-0.010585172,0.049896613,0.032662075,0.07291023,-0.043298487,0.009862116,-0.05391255,-0.025935339,-0.062157404,0.053775623,-0.074649714,-0.0066688377,-0.03719365,-0.051294576,0.041034892,-0.025479496,0.019828567,0.018363224,-0.064129956,0.056661453
P1m1,-0.08360739,-0.063136175,-0.058147542,-0.02949585,-0.011709422,-0.00909283,-0.015085008,0.014346681,0.035466112,-3.3710603e-05,0.069558255,0.046636168,-0.060504444,-0.022613423,0.043738294,-0.04096272,-0.026595695,0.0022063367,0.05210416,0.13899638,-0.03384338,-0.09624025,0.0255469,0.045625936,0.042405955,0.0010926666,0.042923175,0.061712347,0.13036785,-0.0756747,0.03312433,0.10011465,-0.01879086,0.06896093,0.017631516,0.007641643,-0.022917256,0.019562563,-0.031931326,-0.02428447,0.03172815,-0.006149033,0.09116362,-0.025392765,0.043922156,0.026722006,0.0013984117,-0.012368594,-0.045866933,-0.06598084,0.052488707,-0.01846909,-0.08798104,0.014265112,-0.014428737,0.012444677,-0.057398334,-0.044873994,0.06922149,-0.062026538,0.05672181,-0.039188217,-0.03686043,0.027403438,0.0025563142,0.051517926,0.017884262,-0.04297611,0.048467785,0.017039677,-0.059291035,0.022258583,-0.0154417055,-0.009241445,0.031425852,0.020337818,0.025680372,-0.06778309,-0.047145378,-0.06242867,-0.059424244,0.028521728,0.013371748,0.111596346,-0.011108769,-0.020823816,-0.05981315,0.060616776,0.009184078,-0.071084835,0.09075039,0.07852614,-0.083814286,-0.093354896,-0.05520645,0.034466762,0.010843641,0.017694619,0.010139059,0.01432212,0.07920438,0.024667853,0.03468478,0.07380712,0.068060406,0.020744087,-0.01959442,-0.0008031804,-0.010283063,-0.005696984,-0.05664046,-0.033968758,-0.028922638,-0.08186677,0.014644234,-0.0898262,-0.0004735111,0.03679996,0.046661288,0.037525482,-0.0018401727,-0.002551316,-0.00029360456,0.004286148,-0.057899404,0.046734042,-0.086569056,5.201088e-34,0.012216331,0.09001145,0.07049479,-0.047549203,0.04936677,-0.017619109,-0.0008067191,-0.092290364,-0.012498831,0.021148995,-0.0717836,-0.0043879333,0.05419332,-0.028612688,0.0037552721,-0.0124823535,0.0019617032,1.6234397e-05,0.025565801,-0.06805119,-0.011650063,0.119722985,0.00588505,-0.028471287,-0.012166378,0.016977718,0.07716497,0.016822184,-0.06539049,0.018215727,-0.01732984,0.016504295,-0.07107177,-8.9033165e-05,0.012519761,-0.011518885,-0.09804396,-0.07107114,0.03698331,-0.10089801,-0.0017830088,-0.029838694,-0.04748469,0.016988618,0.058337435,-0.060131714,0.022337092,0.14020912,0.023243183,-0.04553975,0.019962419,0.038198873,-0.11954747,-0.02136985,0.008511642,0.047871295,0.033880904,-0.00046125802,-0.070527524,0.04333392,0.08501151,0.012550358,-0.046645015,-0.068637535,-0.026186178,-0.014306342,-0.07900245,-0.038516723,0.07695432,0.02199939,-0.052456476,0.014279626,-0.043094855,0.064302996,0.053732485,-0.002369977,0.038563628,-0.05805623,0.0445752,0.062669955,-0.12284665,0.040849738,-0.08567508,-0.051005077,-0.12066803,-0.008975568,0.028467033,-0.14586991,-0.003408842,-0.054097258,0.015132223,-0.046735335,-0.015121634,0.054089904,-0.1382357,-1.2601327e-33,-0.077080704,-0.03386542,-0.025152422,0.06305581,-0.033277057,-0.012797982,0.05093152,-0.01256469,-0.07241202,0.016644672,0.08278132,0.03148311,-0.02838099,-0.05069648,0.06603644,0.020301457,0.023799144,-0.018663181,0.036783624,0.014326425,0.082793325,0.049354564,-0.036317177,0.055573355,-0.033534635,0.056464948,0.034623336,-0.011265543,0.056895413,0.13037898,0.0015394274,0.020151574,0.04272521,-0.015839508,-0.05719145,-0.039584365,-0.056461338,-0.030560482,-0.05849988,0.036558468,-0.009312224,0.03829426,0.047769375,0.07574357,0.064426884,0.0007136507,0.098597534,0.10155041,-0.078985564,-0.03701778,-0.063476704,0.009039534,0.03335812,0.008275683,0.043071333,0.0005042442,-0.015235387,0.0009227494,0.047753718,0.009163984,0.04169377,-0.0013527184,-0.018718408,0.00533354,0.047949832,-0.017047925,0.1068856,-0.03229722,-0.037701707,0.03185944,0.0803567,0.061976332,-0.023160752,-0.13564114,0.032386735,0.046553586,0.055839423,0.023363184,-0.0023088474,-0.051755123,-0.014433926,0.05282806,-0.014015513,0.03837235,-0.012044246,-0.06373043,0.032892954,0.07197226,0.07391832,0.029679906,-0.00840128,0.024127537,-0.01723644,0.06373247,0.06753746,-3.2697187e-08,-0.010406399,-0.017908439,0.030282902,-0.03742913,-0.045729283,-0.049567506,-0.0058350405,-0.014628386,-0.05399451,0.03151877,0.015867949,-0.0349189,-0.10370142,-0.04222489,-0.0024071946,0.087535486,-0.046843547,0.08091086,-0.048468046,0.02220057,0.013908533,-0.008657975,-0.005021405,-0.052219816,-0.036174767,-0.033994213,-0.09466822,0.032681428,0.018513724,-0.008264108,0.03287499,-0.038908932,0.11008404,-0.027372671,0.024157,0.09557039,-0.06691157,-0.049263995,0.020469822,0.025357306,0.0265173,-0.009125273,-0.004818974,-0.012562008,0.0056625307,0.10193343,0.020635623,0.017808566,-0.06899654,-0.0012490707,-0.04473051,-0.011468984,-0.032778848,-0.006311694,-0.11946092,0.06527959,-0.022654122,-0.045660425,0.06204746,-0.033832468,0.043024585,-0.01112528,-0.048926923,0.020948205
P1c1,-0.09836369,-0.058569092,-0.044151373,-0.00869649,-0.016279342,0.02251914,0.018778367,0.040523287,0.02317114,0.019797636,0.049447484,-0.015443223,-0.06863028,0.027623484,0.014551177,-0.05772423,-0.005471112,0.026174005,0.06821939,0.100318365,-0.024243692,-0.06716193,0.045808833,0.08682906,0.029584136,0.021207102,0.0186177,0.07431716,0.09626542,-0.10528381,0.020737456,0.07725761,0.018642925,0.06903261,0.018984653,-0.04503989,-0.05269062,0.01656507,-0.034204323,0.0015306148,0.014630691,-0.00068895746,0.09607973,0.01078955,0.03305763,0.018384295,-0.0145430835,-0.039571367,-0.05856843,-0.008095204,0.03514096,-0.009738419,-0.11710322,0.04276561,0.007433239,-0.0072857807,-0.08468293,-0.05373162,0.09541954,-0.079948366,0.07156419,-0.042037096,-0.021610055,0.03109551,-0.054006502,-0.005475319,-0.0021321203,-0.06241387,0.054739293,-0.0042485655,-0.03439189,0.0124636935,-0.0039061452,-0.0037495266,0.049558,0.020324873,0.03766091,-0.06392346,-0.077987686,-0.087959826,-0.035051465,0.02008573,-0.019530222,0.08180376,-0.007772989,-0.008324843,-0.056972608,0.05941368,0.008456069,-0.08056826,0.06204659,0.087118775,-0.05492926,-0.10728498,-0.07810268,0.015287214,0.05512036,-0.004074094,-0.026416365,0.027774349,0.047607914,0.04249362,0.05715209,0.05258867,0.020700684,0.011143811,-0.025907015,-0.02457241,0.006363575,-0.028356437,-0.066671975,-0.040182557,-0.029648669,-0.08915018,-0.011424892,-0.09667231,-0.01564428,0.023797292,0.06137052,0.022751205,-0.010494907,-0.056568805,0.040573347,0.017753774,-0.07396203,0.013869842,-0.085231,1.3790346e-33,0.0056103296,0.058079932,0.05251082,-0.0067039914,0.015896402,-0.051668346,-0.012742084,-0.08852925,0.0029968238,0.010009147,-0.07186886,0.005559885,0.050616182,-0.0018620364,-0.01092817,-0.027242873,0.028318884,-0.050020255,0.028605,-0.07928435,-0.008859523,0.11030561,0.007939698,-0.027253833,0.004952106,0.032774307,0.03978286,0.026639719,-0.03720365,0.027848156,-0.009354748,0.01885278,-0.07860182,-0.0071088695,0.052551024,-0.015829237,-0.06388071,-0.084486656,0.06920408,-0.059468184,-0.018877598,-0.061395623,-0.027618786,0.0060543483,0.040870205,-0.024509743,0.016584016,0.16487125,0.04089033,-0.028097989,0.054924466,0.035261296,-0.09598358,-0.006126652,0.011535386,0.05119348,0.021271693,-0.006743055,-0.05930747,0.04879342,0.11352855,0.011245537,-0.070680626,-0.10693619,-0.020177022,-0.010620956,-0.0733955,-0.005917912,0.08003812,-0.03314592,-0.039337818,-0.0040324754,0.041336022,0.03393486,0.06838559,0.025467522,0.016819837,-0.0731778,0.0451883,0.03278612,-0.14881428,0.00670021,-0.09315576,-0.042846624,-0.11993187,-0.026204407,0.032831106,-0.12112346,-0.025672683,-0.051559433,-0.055091485,-0.045495607,0.01948729,0.06821807,-0.10803405,-2.5204842e-33,-0.06460384,-0.032124214,-0.056120228,0.0761653,-0.043428037,-0.0038344848,0.02979603,-0.037369926,-0.07024244,-0.011024005,0.09187275,0.030748643,-0.007976944,-0.056872167,0.08441299,0.01864952,-0.011477991,-0.019108864,0.029254679,0.037340388,0.08368415,0.0072903237,-0.069121845,0.064260885,-0.031728104,0.059304737,0.014987936,0.004510749,0.05327165,0.13752216,0.000658291,-0.009823357,0.029849699,0.0016968672,-0.08730115,-0.06671927,-0.060703132,-0.03806696,-0.04474566,0.01907411,0.0019723468,0.0037853464,0.03501081,0.06613616,0.07842415,-0.007137846,0.110703655,0.09071399,-0.015186373,-0.02775445,-0.045715787,0.03693037,0.017358484,-0.011708808,0.029408941,0.03548296,-0.01549992,0.01898062,0.09416825,-0.026051756,0.046490822,-0.018777613,-0.018446151,0.030493671,0.060049098,-0.034142967,0.04854411,-0.0042077606,-0.03362128,-0.025695408,0.040963884,0.029323332,4.611778e-05,-0.10294707,0.0024878124,-0.03580776,0.077788174,0.0037360734,0.02001441,-0.03353266,-0.01802731,0.03543677,0.004045678,0.0042842394,0.001826236,0.013493044,-0.0035520878,0.031988017,0.108390026,0.020220054,0.0001791958,0.05948299,0.016622815,0.043778345,0.05072724,-3.510129e-08,-0.030058378,0.012687423,0.045520257,-0.028156348,-0.02059026,-0.030480692,-0.0155412685,-0.015485628,-0.03773945,0.012229229,0.0269865,-0.018256076,-0.0719842,0.0007175405,0.004023403,0.11200696,-0.02743547,0.10497859,-0.004215348,0.023403011,0.00407354,-0.01628386,0.05138901,-0.071587116,-0.10284964,-0.06385057,-0.103099875,0.05550839,0.02349958,-0.024313224,0.030225797,-0.03775129,0.1600221,-0.04364433,0.056745645,0.084165506,-0.064358346,-0.02062128,0.020282421,0.049330693,0.01105538,0.038357843,0.0013307824,-0.008033969,-0.003103776,0.08766682,0.0053021475,0.033045046,-0.04780858,0.018459544,0.0054153553,0.007393456,-0.075429,-0.013790239,-0.05410303,0.04786328,-0.033787135,-0.012559593,0.062930055,-0.015815057,0.012726881,-0.039114747,-0.08347172,0.028789304
C1m1,-0.109988496,-0.027432889,-0.06232995,-0.02074444,-0.014293981,-0.0146733755,-0.022779623,0.06816896,0.018247299,-0.0077360654,0.07357702,-0.034212835,-0.06691396,0.013273557,-0.012780533,-0.061020978,0.0036872253,0.0320666,0.026946591,0.07574723,-0.034878023,-0.10230667,0.0070902314,0.033667404,0.013948399,0.032701876,0.042098325,0.007786612,0.055898212,-0.07808461,0.046532925,0.05553424,0.011788677,0.037160918,-0.018936286,-0.014231228,-0.022624094,0.0016949783,-0.018651532,-0.036696687,-0.053487513,0.017650094,0.08639563,0.017136138,0.014086782,0.011169682,-0.0033933267,-0.0030264733,-0.025114195,-0.06211693,0.015232169,-0.06411074,-0.11460047,0.038194742,0.0232416,0.029354494,-0.09639133,-0.027093211,0.101804204,-0.033293806,0.048551902,-0.07199218,-0.025683295,0.042912282,0.0018829819,0.03798641,0.028553525,-0.04211951,0.033114187,0.039054625,-0.010433934,0.0020668567,-0.031252418,-0.016235713,0.062780134,0.027996166,0.049832106,-0.038988188,0.04905578,-0.047109246,-0.04898509,0.061493296,0.018528393,0.09509584,-0.025379812,-0.022296604,-0.049779516,0.017206118,0.027197002,-0.047267236,0.024967382,0.09087435,-0.04875607,-0.12630408,-0.10268801,0.031085696,0.04438973,0.03984684,-0.013577893,0.051626157,0.069216065,-0.02418079,0.038257714,0.059302755,0.044009864,0.008911532,0.0025985262,-0.01136882,-0.0050669466,-0.024839165,-0.025521632,0.0223444,-0.09339698,-0.10215922,0.013626421,-0.07651276,0.034749795,0.004499429,0.06908113,0.055508647,0.009020016,-0.030882897,-0.0066447095,-0.06367331,-0.064808734,0.064620964,-0.08060113,9.360895e-34,-0.0048737363,0.10048913,0.017655408,-0.053264327,0.05633222,-0.07445362,0.006128211,-0.019660162,-0.010349845,0.042236485,-0.10587037,0.0136924945,0.014734855,-0.012176857,-0.048322976,-0.039350346,0.033927336,-0.014928468,-0.028844697,-0.11281861,-0.042015083,0.10487089,0.0443123,0.011280222,-0.012625023,-0.032091286,0.07840242,-0.0016588173,-0.006635026,0.016705299,0.032223307,0.058412403,-0.06037731,-0.009182081,0.05282621,0.0002318074,-0.072907075,-0.085369945,0.082322076,-0.058008574,-0.00300041,0.01111097,-0.02774517,0.010863336,0.05904877,-0.021583276,-0.0060070115,0.08428543,0.073961064,-0.029073426,0.016099615,0.04186945,-0.09370727,0.008151712,-0.0022885602,0.07362643,0.04771477,0.002029046,-0.044019286,0.0124992095,0.042847067,0.012940624,-0.039203856,-0.077596754,-0.014790082,-0.01884308,-0.12700559,-0.041424803,0.038996305,-0.025319135,-0.029003464,-0.002161043,-0.020546699,0.072168045,0.053334765,0.019597214,0.016311485,-0.025148798,0.021772934,0.07466923,-0.10673887,0.07387342,-0.09878091,-0.07188651,-0.10886553,0.011967075,0.016067754,-0.12916656,-0.013158838,-0.039737385,-0.03779629,-0.040509645,0.026155308,0.03884294,-0.15980041,-1.8443466e-33,-0.07272262,-0.03506902,-0.054545306,0.0238459,0.0037274414,0.006796078,0.06291115,-0.019204766,-0.051967256,0.032780044,0.11638718,0.019152183,0.008620616,-0.02030778,0.05953745,-0.010811684,0.012089728,-0.020751715,-0.023160292,-0.01673011,0.0819045,0.024961777,-0.017642261,0.0504839,-0.011772212,0.005895971,0.018032407,0.019224027,0.086792015,0.14221035,0.033943795,-0.014545486,0.036680914,0.06499999,-0.032392185,-0.043374367,-0.035654128,-0.054488737,-0.05002332,-0.0029895876,0.0010469715,-0.01037201,0.06371372,0.102994874,0.03358068,0.045506015,0.060935497,0.099487066,-0.10211186,-0.04096089,-0.047683474,-0.019128373,-0.006501271,0.011360641,-0.0037586964,0.03577641,-0.002620538,0.0046390183,0.08706331,0.028404538,0.063527994,-0.00034304737,-0.008961617,-0.041642673,0.040597916,-0.010922155,0.047095962,-0.069600075,-0.014093941,0.0070022903,0.100188516,0.035200633,-0.026298948,-0.09484559,0.021859981,-0.016165499,0.07305852,-0.013190139,-0.008456489,-0.029543277,-0.02634344,0.04163277,0.061464887,0.057743624,0.007969072,-0.044096053,0.01253698,0.026429694,0.10260335,0.09013341,-0.021028236,0.025962776,-0.031907428,0.04951437,0.08306444,-3.51032e-08,0.0012722512,-0.00307,0.028660325,-0.06518528,-0.03677617,-0.05397687,0.01767187,-0.084787,-0.03814278,0.018515423,0.029589,-0.013937346,-0.10885144,-0.035769746,-0.051837783,0.07492745,-0.043969095,0.12236117,-0.018097026,0.022502147,0.011152573,-0.005402229,0.06320638,-0.065931685,-0.01752304,-0.046333533,-0.104558796,0.09007848,-0.008475278,-0.023440856,0.02886095,0.025088385,0.13905217,-0.05011633,0.022654977,0.060385216,-0.07830253,-0.01212763,0.0172775,0.015974388,0.05353364,0.018580487,0.0012302798,0.01530565,0.010726464,0.06283068,0.030724384,0.06158681,-0.05798987,0.0006503405,-0.021657906,-0.040281363,-0.049329523,0.028776297,-0.0884057,-0.023902042,-0.021005299,-0.05113656,0.038746994,-0.032755144,0.07682334,0.01647418,-0.053862844,0.035386223
C1c1,-0.10175064,-0.049440894,-0.06790138,-0.03656139,0.0035995736,0.03176802,-0.0055793333,0.0745522,0.003930377,-0.014750713,0.073095344,-0.060376145,-0.08348663,0.025034448,-0.009301906,-0.07997097,0.0007924863,0.05830602,0.041515607,0.07819136,-0.03729784,-0.056787994,0.022805566,0.037483968,0.013862001,0.013718254,0.013875322,0.021608513,0.051333103,-0.0853406,0.05120144,0.05422602,0.008469064,0.079216816,-0.030348238,-0.051502235,-0.07304333,0.016535869,-0.03389597,-0.01851778,-0.044718813,0.029848814,0.08871155,0.04343759,0.024760865,0.017349305,-0.025622468,-0.010900659,-0.062402226,0.004351862,0.013266402,-0.06423526,-0.12716872,0.0545187,0.026852539,-0.007387448,-0.09445861,-0.02598365,0.10533139,-0.06448487,0.061709385,-0.03884557,-0.018839221,0.042287584,-0.02453892,0.028388208,0.020524202,-0.054476157,0.040314805,0.015370689,0.0034298876,-0.023364386,-0.031782676,-0.04166833,0.04238468,0.027297689,0.056704216,-0.037203707,-0.0009627596,-0.04074848,-0.037740048,0.070255585,-0.0088580055,0.081108175,-0.031532582,-0.005599506,-0.02863506,0.0175098,0.0012594854,-0.05637407,0.0056742984,0.09144857,-0.037084598,-0.1353921,-0.13389231,0.011762573,0.05569471,0.023949435,-0.022347538,0.03879354,0.041084018,-0.00459734,0.06773526,0.042006012,0.034691628,0.0025488117,-0.008885797,-0.013102501,0.016460154,-0.027205508,-0.040058803,0.010179682,-0.1102708,-0.1035765,-0.0045583444,-0.087420024,0.0003411506,-0.003841653,0.07642633,0.032188337,0.0044469796,-0.057853486,0.026234189,-0.07629962,-0.0620515,0.047998782,-0.075774804,1.4637284e-33,-0.022740154,0.0714554,0.015869422,-0.023218516,0.04506402,-0.07179489,-0.02237796,-0.012768456,-0.026089683,0.040736053,-0.10115428,0.03448289,0.01363069,0.027661292,-0.035111994,-0.051709436,0.03822653,-0.045117933,0.004120199,-0.11434634,-0.051502302,0.10601574,0.05040185,-0.010983284,-0.012918271,-0.017190311,0.043424025,0.0066666,-0.012799113,0.024115872,0.03064215,0.07143656,-0.057182115,-0.015520468,0.092619486,0.027422424,-0.05136974,-0.09698846,0.09226115,-0.047824584,-0.01430559,-0.03917135,-0.038510222,-0.002121685,0.056940936,-0.009037832,0.009713087,0.10240205,0.06688896,-0.049190093,0.020405896,0.027821431,-0.0346794,0.023044292,0.02963902,0.042004533,0.033838145,0.0010255009,-0.06648887,0.048144106,0.07115466,0.006569447,-0.053499993,-0.0826131,-0.014155588,-0.03983519,-0.09248792,-0.008420226,0.07331019,-0.055296887,-0.017497184,-0.030280074,0.03700924,0.03482478,0.04448099,0.056270532,0.037429858,-0.018308355,0.023177113,0.029157648,-0.10142857,0.042526312,-0.08198665,-0.06137429,-0.09838714,0.01131327,0.005274539,-0.091586046,-0.023792854,-0.021470077,-0.05910595,-0.037282147,0.031125987,0.042222057,-0.12555788,-2.4097254e-33,-0.06547956,-0.03797618,-0.09129672,0.0385491,-0.016878711,0.005975712,0.06582629,-0.040889725,-0.05232136,-0.0064418605,0.10760265,0.0028661892,0.018370492,-0.06728651,0.080980435,-0.016814433,0.0060842438,-0.021379646,-0.017930238,0.04531233,0.09123392,-0.006681585,-0.072393686,0.02932029,-0.035802748,0.0479404,0.023366943,0.036537018,0.06091433,0.120434165,0.0073639518,-0.032814115,0.016463924,0.045994006,-0.035136215,-0.06817095,-0.020805992,-0.03876952,-0.028562287,-0.004443721,0.022435376,0.00016868746,0.016601311,0.09343012,0.07248188,0.016773053,0.05617766,0.10155937,-0.06385085,-0.03717004,-0.030786827,-0.019513244,0.006135491,0.02020467,0.01654393,0.04611578,0.013642928,-0.013009638,0.1002321,0.009794117,0.035617407,0.015198303,-0.032703858,-0.014477457,0.044501714,-0.03436073,0.04611009,-0.046433385,-0.020127723,-0.032471534,0.06008597,0.026525503,-0.011601272,-0.10556852,-0.019728357,-0.048610993,0.07784397,-0.009253772,0.01940441,-0.009783808,-0.012830543,0.03258608,0.062725194,0.036506128,0.022613663,-0.0007163518,-0.034857243,0.029042402,0.13598804,0.05835886,-0.014309126,0.060459416,0.0012676885,0.030419558,0.06260373,-3.6730118e-08,0.00365431,0.017609362,0.052409288,-0.060019337,-0.030214528,-0.03682253,0.038258456,-0.07273419,-0.06165625,0.017646108,0.047535844,-0.006573601,-0.09214464,-0.032411326,-0.020916568,0.07041736,-0.031019107,0.13986619,0.007042783,0.022172831,-0.036972567,-0.0061709224,0.09822357,-0.073768824,-0.078893036,-0.05737175,-0.09615121,0.0827778,0.02966169,0.0012242709,0.013463109,0.0071982713,0.15019314,-0.069504365,0.052611496,0.03913618,-0.054959305,-0.013602789,0.023994824,0.033615187,0.05132374,0.04119909,-0.00516334,0.013897337,-0.0100252675,0.068840824,0.011239886,0.06552519,-0.04823929,0.02917367,-0.0037847965,-0.018604735,-0.10030068,0.041179065,-0.058167394,-0.03117767,-0.023999738,-0.03920054,0.017884417,0.00052958867,0.03151978,0.017442105,-0.059186276,0.02811111
P12/m1,-0.09701306,-0.025001023,-0.06864394,-0.08484098,-0.009502222,-0.0021377748,-0.017426632,0.05226398,0.016136648,-0.016506894,0.09066428,0.08490174,-0.06167973,0.018582882,0.031246582,-0.062377986,-0.008581439,0.034612432,0.017475566,0.11066633,-0.03181507,-0.10035111,0.023206051,0.037573475,0.020427406,0.011048973,0.057051867,0.027280042,0.09326556,-0.05394156,0.042619653,0.06535769,-0.025666116,0.032034244,0.019357616,-0.03943641,-0.03192817,0.012889068,-0.024785208,-0.038559232,0.030678663,-0.018333428,0.1049204,-0.014084494,0.060142376,0.025637336,-0.0097847935,-0.026823685,-0.052432694,-0.06933428,0.03725432,-0.0053040185,-0.09857008,0.021409009,-0.012607343,0.016449565,-0.0725101,-0.02749487,0.04690227,-0.07480118,0.051329497,-0.039046977,-0.047842927,0.023939218,-0.020092038,0.08576605,-0.011680548,-0.04675502,0.039561823,0.010470145,-0.010941473,0.010819181,-0.032042354,-0.03813627,0.024880445,0.012087708,0.05147959,-0.042630587,-0.04788994,-0.04927363,-0.040462792,0.040388864,0.013933844,0.08520358,-0.0049496456,-0.05001619,-0.06040833,0.05291846,-0.007993811,-0.055294763,0.041849922,0.06632484,-0.088696264,-0.0957237,-0.03126948,0.05157765,0.045443505,-0.00025029716,-0.029064769,0.021700077,0.08643394,0.03434528,0.022928338,0.027885921,0.016402656,0.040073905,0.0021469586,-0.0024613182,0.0041968096,-0.031918894,-0.03643949,0.003331113,-0.070006594,-0.10149196,0.06134905,-0.11262312,0.009438614,0.021077622,0.036405794,0.04104555,-0.011516015,0.00077505724,-0.035338726,0.008724841,-0.06253177,0.08670094,-0.08299057,3.0660865e-34,0.020004245,0.0843586,0.06233555,-0.038968466,0.032905348,-0.01440436,-0.01230152,-0.0661879,0.0027576399,0.0139865745,-0.06848608,-0.043799616,0.047992274,-0.0046665007,-0.015404932,-0.03951507,0.008520035,0.009790438,0.02681606,-0.09041077,-0.027500251,0.124999255,3.760689e-05,-0.0009090074,-0.010264129,0.024798233,0.049521063,0.03592446,-0.06387984,0.032896772,0.031304825,0.017169267,-0.07567179,0.027192896,0.01273298,-0.030437145,-0.04047272,-0.075747855,0.09707682,-0.1447426,0.029506698,-0.053172305,-0.026468571,0.04994887,0.077841625,-0.045515,0.05500444,0.11154697,0.06554248,-0.06236753,-0.00014701659,0.05995907,-0.09666407,-0.005958908,0.015510834,0.061228234,0.0504508,-0.00735847,-0.05842535,0.05928464,0.10901906,0.015152656,-0.054353777,-0.03401221,-0.017029777,0.0063625653,-0.05670943,-0.059431206,0.095471345,0.02413714,-0.03527958,0.037911482,-0.019938681,0.0677444,0.0909935,0.006369365,0.042371377,-0.05651406,0.06279675,0.10288729,-0.08358388,0.048955023,-0.10113559,-0.040924553,-0.09721756,-0.021214608,0.007124952,-0.14644352,-0.005969994,-0.039199743,-0.003803673,-0.0657757,-0.0036999283,0.06361686,-0.1299114,-1.578917e-33,-0.04977236,-0.032741822,-0.052595418,0.04246079,-0.053353466,-0.013385732,0.062267322,-0.019201491,-0.044484578,0.055252966,0.093318194,0.022917835,-0.017851772,-0.081854895,0.049197555,0.032634526,0.0014450835,-0.011627788,0.030121876,-0.026777565,0.116249226,0.070260696,0.018261498,0.03204127,0.0025520772,0.0325704,0.036256973,-0.004503785,0.025816226,0.1496971,0.0073105837,0.0052123824,0.013400393,-0.00031129344,-0.08479467,-0.069001436,-0.034675818,-0.0544276,-0.09011268,-0.0033838172,-0.017333696,0.026802242,0.020873517,0.051689167,0.029159874,0.016252756,0.09061856,0.07718126,-0.067358114,-0.02365183,-0.053015772,-0.0015565169,0.04153826,0.030765938,0.030770058,-0.0094741685,-0.03502138,0.017592935,0.048655756,-0.011586194,0.018854497,-0.0019424864,-0.01943538,-0.013523554,0.05774336,-0.014157704,0.08886056,-0.059046663,-0.02987154,0.048949912,0.056867976,0.04165814,0.010838715,-0.08716062,-0.0034948504,0.024345867,0.08161479,0.005989009,0.0066063837,-0.06717599,-0.01488577,0.004061113,-0.0075546713,0.0358535,-0.028997304,-0.077889815,-0.019120881,0.08157393,0.09366255,0.05843249,-0.02578593,0.035076927,0.0040473007,0.03286491,0.08469584,-3.373362e-08,-0.01691574,0.0211736,0.02586844,-0.037860572,-0.027673101,-0.023434233,-0.013216489,-0.010669513,-0.034543235,0.045884196,0.04068276,-0.058316704,-0.1315678,-0.046871003,-0.022735909,0.049719166,0.005847579,0.052559696,-0.027926005,-3.0453684e-05,0.0028838196,0.027635548,0.022879126,-0.06510013,-0.061388012,-0.011007089,-0.084526956,0.020819018,0.011791923,0.0015152313,0.039344333,-0.04607435,0.07792315,-0.044383414,-0.0045013702,0.10079145,-0.06988946,-0.024950609,0.05579164,0.026479017,3.647932e-05,-0.02132201,-0.007565446,0.00092413294,0.0056604985,0.0771705,-0.026866158,0.020149501,-0.06194101,-0.00664042,-0.028105525,0.008176951,-0.04936982,0.005701295,-0.12744085,0.033687465,0.0011633511,-0.06700861,0.029366504,-0.009622618,0.061204676,0.031113727,-0.08244885,0.009930743
P12_1/m1,-0.095404126,-0.0021430622,-0.08000441,-0.09728745,-0.03462405,-0.013912687,-0.0207993,0.0463795,0.017805072,-0.012079665,0.086000584,0.073397264,-0.075849436,-0.011727273,-0.01738718,-0.058775976,-0.020154845,0.02785393,0.00981434,0.12105717,0.015364832,-0.11348755,0.04939373,0.020803474,0.035027083,0.008551039,0.041763943,0.046219114,0.09879051,-0.051909253,0.04486547,0.046945207,-0.03576461,0.0065462133,0.029301198,-0.028712943,-0.02856636,-0.012568656,0.010531824,-0.028578028,0.0068172677,0.008795538,0.09540079,-0.009621031,0.04673103,0.0025625133,-0.047383748,-0.011517656,-0.03232513,-0.077510804,0.048442625,0.01672805,-0.10289356,0.03842829,-0.007950452,0.029785344,-0.10656124,-0.026881466,0.05416675,-0.056124065,0.065955445,-0.047395054,-0.008844428,0.015223624,-0.023402514,0.04480986,-0.015626805,-0.044469222,0.018810285,0.030997196,-0.023691736,0.023117723,-0.0012970053,-0.05397909,0.04551356,0.01959562,0.03620595,-0.027748946,-0.037962254,-0.041493338,-0.028538216,0.066430464,0.005973106,0.105772875,0.012404968,-0.07144026,-0.0556923,0.049822252,0.026424102,-0.058706194,0.05101188,0.04714146,-0.07666518,-0.07700647,-0.018984767,0.02248302,0.054683886,-0.019196441,-0.025311297,0.02386662,0.07202007,0.02386613,0.01761941,-0.0026703132,-0.048983376,0.0610912,-0.037105538,0.003312097,-0.002672362,-0.048869494,-0.055642966,-0.024839351,-0.079320066,-0.069996625,0.050918285,-0.10794081,0.021845486,0.009314814,0.06305042,0.033112038,0.0043720333,-0.007522527,-0.06770674,0.029345108,-0.06789645,0.08356196,-0.08299001,2.7568463e-33,0.06278818,0.07598206,0.030776983,-0.013253239,0.032866582,-0.010439864,-0.007370245,-0.06939246,-0.013508174,0.03539916,-0.056265704,-0.024823388,0.058887407,0.0024244117,-0.046574995,-0.05009381,0.04327666,-0.00030115555,0.05063568,-0.110998295,-0.04337744,0.10402474,-0.0018117685,-0.0007931997,-5.1383107e-05,0.030394226,0.04838258,0.048020657,-0.03935726,0.033833437,0.008979761,-0.019512165,-0.072233945,0.020383144,0.008247026,-0.035820656,-0.032649852,-0.05921777,0.105135456,-0.1781087,0.05231773,-0.002411948,-0.0041590566,0.024071462,0.048390727,-0.043168582,0.03503017,0.08993015,0.083663434,-0.04987492,0.0058738287,0.018584087,-0.06907858,-0.026081158,-0.0017757439,0.070596136,0.03750578,-0.01702172,-0.049713787,0.06484579,0.074762546,0.022368584,-0.022348117,0.0065991385,0.01614214,0.007937995,-0.06966824,-0.051355526,0.06365288,-0.01035757,-0.06279554,0.019977894,-0.02056847,0.067699276,0.052734256,0.0067233234,0.026402296,-0.06812471,0.05793205,0.1231692,-0.07458565,0.038702495,-0.10336404,-0.055528276,-0.114635944,-0.01514498,0.015905425,-0.14422695,0.002205817,-0.036759015,0.017987477,-0.08624041,0.011530748,0.07085366,-0.104301766,-4.5912065e-33,-0.04401174,-0.03263228,-0.02169742,-0.007561196,-0.049004395,-0.03179854,0.05589742,-0.036560778,-0.023386471,0.08209528,0.079506695,0.028453855,-0.045278728,-0.06128031,0.04428213,0.02924559,0.010786501,-0.002564601,0.042349964,-0.04324366,0.108482346,0.07136457,0.03915315,0.03245656,-0.0147713395,0.008417215,0.04897696,-0.0041348916,0.00018308562,0.14543699,-0.0032991401,-0.009399099,0.0004818238,0.021610845,-0.07167943,-0.06108794,-0.04463308,-0.049977522,-0.05635019,-0.02174485,0.016363718,0.0110331485,0.0059271445,0.032103762,0.026732028,0.0037622356,0.10913079,0.06040091,-0.061394475,-0.013698466,-0.09921549,-0.0018703464,0.045842115,0.021588387,0.06232368,-0.016364142,-0.01814911,0.0006602484,0.07115648,-0.0038967645,0.054553505,-0.0041808058,-0.01967156,-0.012148059,0.046438906,-0.0057624346,0.0947627,-0.076422945,-0.025299737,0.07865924,0.078656666,0.030375509,0.004406485,-0.08700912,-0.01296586,-0.0060395747,0.042358756,0.008918654,-0.0013289714,-0.08174571,-0.024369214,-0.027396902,-0.005747294,0.0283326,-0.034054287,-0.065499075,0.034081586,0.1204576,0.07371835,0.068070576,-0.015210067,0.01042124,0.0156056825,0.040090684,0.0752048,-3.7809688e-08,-0.019743806,0.02635794,0.0028788436,-0.068475164,-0.020112555,-0.015073345,-0.045294404,-0.0026651372,-0.01430596,0.010167884,0.040205732,-0.02033102,-0.104995035,-0.030346662,-0.04531995,0.08555702,-0.009626492,0.04087719,-0.028236283,-0.0045638066,0.018508207,0.0051776376,0.06762643,-0.0665097,-0.074407846,-0.025152266,-0.11173313,0.032395825,0.020455573,-0.021807048,0.04355337,-0.017166285,0.092528716,-0.08364639,0.017506806,0.10962611,-0.049536336,-0.010295441,0.04263012,0.031672668,0.016371844,-0.017994061,-0.027737489,-0.026535941,0.011834189,0.06717296,-0.042670257,0.011736967,-0.06348359,-0.015135322,-0.013666879,0.023884777,-0.05212503,-0.005942245,-0.11847423,0.00494383,-0.017201796,-0.03805728,0.03626998,6.712742e-05,0.023918808,0.00835675,-0.09581624,0.005637045
C12/m1,-0.083299026,-0.009103352,-0.09524054,-0.070588775,-0.03188091,-0.02932668,-0.03593695,0.048440285,0.021243691,0.0054242723,0.08840512,0.026276123,-0.06479116,-0.019339012,-0.019037174,-0.07456444,0.008346387,0.048234668,0.020622887,0.09897193,-0.039479204,-0.0997207,-0.008279826,0.023527624,0.020984245,0.031299952,0.041242402,0.01584904,0.057775915,-0.062303174,0.045782216,0.04699847,-0.020068191,0.00020975724,-0.021969683,-0.04608822,-0.013847483,-0.0089357495,-0.008893832,-0.056877486,-0.05796324,0.028141202,0.10146616,0.028512346,0.025229985,0.030142035,-0.026504036,-0.005496004,-0.04131414,-0.08014353,0.029542595,-0.040546574,-0.1260398,0.04860753,0.029663887,0.04970858,-0.13580029,-0.007798748,0.0653331,-0.026859397,0.042512517,-0.09487303,-0.015101295,0.020304594,-0.0035315773,0.048990265,-0.0033575129,-0.040693514,0.0323542,0.026950566,-0.033430163,-0.004237103,-0.008798258,-0.030674268,0.049462598,0.014366716,0.036714002,-0.02154769,0.062293265,-0.034482133,-0.039893817,0.069986954,-0.0055665886,0.10982475,-0.00083612424,-0.051579725,-0.04343355,-0.0010578707,0.010720754,-0.04841423,0.031929556,0.05644626,-0.06455868,-0.1280345,-0.08320869,0.042625185,0.058854673,0.02319546,0.0010700647,0.045627825,0.07558864,-0.0022545285,0.027331742,-0.0040309154,0.007307921,0.039519593,-0.01901739,0.0001676373,0.015831484,-0.025895068,-0.035600644,0.041132573,-0.11427025,-0.09040711,0.05950784,-0.09162099,0.054084655,-0.0092509715,0.072833665,0.057576578,0.0038421315,0.0048114923,-0.047634184,-0.04040756,-0.058921587,0.071965076,-0.06491405,8.429904e-34,-0.009387832,0.09096308,0.042237885,-0.045134526,0.033542506,-0.047738302,0.0125514595,-0.029434135,0.009635726,0.05197015,-0.09033255,-0.022682646,0.02692047,-0.008088084,-0.0756537,-0.04182089,0.052387696,-0.027983021,-0.0008445097,-0.13887915,-0.047771562,0.109261416,0.031478446,-0.001152354,-0.025038939,0.0011634859,0.072467886,0.020456212,-0.02779598,0.04215173,0.058300547,0.037516885,-0.051879592,0.023959775,0.03799313,-0.01714621,-0.047287017,-0.08111539,0.12679419,-0.10058289,0.043632206,0.0021849088,-0.03141142,0.02916643,0.053379778,-0.004194025,0.049064845,0.08471393,0.10195138,-0.04070873,-0.0047554965,0.019621763,-0.04757547,-0.010030479,0.023087407,0.092567265,0.036272515,-0.025272997,-0.056856174,0.034291737,0.01662066,0.008490194,-0.03531161,-0.022115815,0.0018090702,-0.012397458,-0.10609635,-0.040798195,0.012594602,-0.013458819,-0.020367682,0.043108314,-0.012761056,0.056996267,0.046041366,0.008173909,0.02643633,-0.022418052,0.024579458,0.108770624,-0.08765379,0.06863699,-0.10159954,-0.06678184,-0.10762563,0.007202273,-0.010132178,-0.13410494,-0.0081073465,-0.005885209,-0.036892265,-0.0567135,-0.0017846023,0.048230745,-0.13303474,-2.4891157e-33,-0.028289406,-0.04078911,-0.03771727,0.01728073,0.003173972,-0.00026984204,0.06599279,-0.002749313,-0.052513983,0.06357071,0.116609715,0.015653683,-0.010574084,-0.03959778,0.04815119,0.0062717535,0.013567391,-0.025126172,-0.0039055753,-0.039798096,0.0882799,0.032082304,0.016879631,0.040397413,-0.0061696838,0.0137399165,0.035914715,1.4493358e-05,0.04944127,0.16290626,0.02868169,-0.032834537,0.034996107,0.03896495,-0.043923642,-0.045417145,-0.03435882,-0.039418142,-0.076435514,-0.021648135,0.0017932947,0.011203287,0.034760963,0.053309582,0.020157,0.0059171044,0.08217726,0.08804808,-0.06758158,-0.046709035,-0.059227623,-0.0543769,0.017277015,0.036531545,0.022428863,0.016244477,-0.00944487,-0.007793647,0.075495556,0.031849526,0.05058223,-0.020444466,-0.042686056,-0.04643165,0.049307287,-0.017429145,0.0615863,-0.08957516,-0.0014226465,0.043774277,0.07683947,0.018245768,-0.010152086,-0.092205144,-0.021413535,-0.030037057,0.0696501,-0.016237088,-0.029024776,-0.06146444,-0.020837072,-0.004271126,0.04707226,0.06972124,-0.01458746,-0.060040444,-0.023571074,0.060052797,0.08310913,0.09538294,-0.049274366,0.04451689,-0.034163047,0.025764152,0.07164799,-3.596569e-08,-0.009221664,0.025115686,0.03106018,-0.048095457,-0.02641103,0.009419764,-0.005501772,-0.05275327,-0.03321271,0.027921015,0.03223333,-0.006578195,-0.10160411,-0.06666422,-0.075772904,0.05250414,-0.021548865,0.08298428,-0.01698013,0.001356587,0.022427635,-0.009187692,0.0734686,-0.07117065,-0.020058021,-0.046948295,-0.09207284,0.084655374,0.011945182,-0.002427536,0.011248007,-0.008240155,0.1303161,-0.06661933,0.0002522593,0.07067628,-0.062724106,-0.03399686,0.04439886,0.01033556,0.039959993,0.020553455,-0.008325772,0.011110008,0.0065060323,0.058961406,-0.0043135816,0.038801536,-0.051011268,0.0052898214,-0.010275779,-0.013341143,-0.04713138,0.053877335,-0.07813346,-0.0048560225,-0.0010098706,-0.04989167,0.031216504,-0.028490923,0.07651272,0.031112395,-0.07484178,0.043957684
P12/c1,-0.08172133,-0.014301402,-0.07925672,-0.08511601,-0.03295901,0.024139177,-0.013073062,0.06140022,0.05658849,-0.012680152,0.0924176,0.012123805,-0.08988296,-0.0041966354,0.0030911374,-0.061401945,-0.019139089,0.044576865,0.022691851,0.12354309,-0.055155434,-0.08861851,0.05200112,0.07578371,0.011400506,0.039544173,0.033070847,0.025775779,0.08186233,-0.06921382,0.045015898,0.06916484,-0.01673119,0.018961558,0.030716756,-0.04923234,-0.060015872,-0.0063279425,0.013470884,-0.023598187,0.00010250292,0.023261096,0.105698474,0.03270322,0.070252605,0.0176659,-0.042803194,-0.024507675,-0.051297117,-0.027418679,0.050626807,0.0066816355,-0.11093088,0.05672456,0.013288224,0.018397868,-0.11227949,-0.002706792,0.096100315,-0.07958232,0.06090403,-0.04326056,-0.024624327,0.027704146,-0.04473588,0.0016793717,-0.00359034,-0.0548172,0.041236136,-0.0029251517,-0.080067195,0.022554161,0.0031863549,-0.033541624,0.03943979,0.025187163,0.037726402,-0.043227233,-0.041740417,-0.05817359,-0.030668624,0.017573278,-0.033855613,0.10221686,0.026262045,-0.056464218,-0.053461343,0.026652034,0.0003075642,-0.051107198,0.039217763,0.08525135,-0.074781224,-0.1097383,-0.09652986,0.03391087,0.0813812,-0.017375818,0.0031297929,0.027888434,0.06947504,0.029335346,0.05525489,-0.004723021,-0.024360895,0.036770206,-0.044774346,-0.010443177,0.038304508,-0.018258467,-0.055332612,-0.015672095,-0.065939665,-0.102397576,0.03567428,-0.06125394,-0.028231377,-0.0028173265,0.070102006,0.010602091,-0.008448494,-0.02775525,0.0017417887,0.006858825,-0.07411982,0.020213224,-0.07495347,8.579558e-34,0.026755342,0.083406776,0.057110976,-0.026659103,0.007902511,-0.050190467,-0.0097540235,-0.06930348,-0.024122212,0.03982207,-0.06142518,-0.024667265,0.04431344,0.0038749594,-0.031220948,-0.033033162,0.053172454,-0.0602305,0.03963385,-0.10538897,-0.023022657,0.11357757,0.022592383,-0.035497606,-0.0068513253,0.021049434,0.03868113,0.04319147,-0.07122078,0.043355763,0.041498955,0.028441038,-0.08010444,0.02236293,0.04551798,-0.03622906,-0.031078212,-0.09890629,0.12011888,-0.12123932,0.041723996,-0.054741904,-0.022280984,0.028783055,0.06441666,-0.012023595,0.053778738,0.122646846,0.09008061,-0.035983562,0.01793882,0.019402778,-0.0384717,-0.012669509,0.025070973,0.07255681,0.019519936,-0.009196956,-0.054849274,0.07608957,0.096333824,0.020813497,-0.053383525,-0.059881717,-0.014467505,-0.02289526,-0.06426172,-0.022175174,0.06991139,-0.027835632,-0.026232895,0.018669492,0.029644854,0.025354631,0.0750708,0.021276707,-0.0072304714,-0.028254917,0.043844886,0.07145795,-0.10122095,0.037501257,-0.08351537,-0.06616198,-0.11263526,-0.008421369,0.0033907962,-0.09807508,-0.018110977,-0.018490138,-0.03330509,-0.083225444,-0.01260298,0.0805344,-0.09431748,-2.3490477e-33,-0.040139273,-0.018155657,-0.05952797,0.036515817,-0.031860184,-0.030304424,0.067481756,-0.04244903,-0.04136942,0.015990805,0.099888414,0.0061310465,-0.034282986,-0.06493236,0.0739196,0.021356393,-0.0190628,-0.010782687,0.029508311,0.008197265,0.0913559,-0.0011318739,-0.05860848,0.0421341,-0.037378523,0.05006266,0.036968794,-0.0043992386,0.024311466,0.14701568,0.0055208365,-0.010173832,0.032310814,-0.017310021,-0.079638906,-0.07759978,-0.04994344,-0.046016928,-0.056208484,0.0024390572,-0.0014867868,0.0058054416,0.024090793,0.06554251,0.066439725,-0.0036850935,0.11431354,0.0757772,-0.02489287,0.0018236279,-0.05002455,-0.005107159,0.040731687,0.021635428,0.051512457,0.01138654,-0.023280373,-0.022149932,0.076227285,-0.034287706,0.042185847,-0.007608949,-0.040891297,0.009948133,0.05095595,-0.022012576,0.042259686,-0.07448857,-0.013135878,0.031893607,0.039540302,0.018606002,0.007935299,-0.101836964,-0.02520858,-0.030636098,0.09993554,-0.019172752,0.026863566,-0.04033209,-0.028227102,-0.0014233281,0.024017386,0.022255877,-0.043277923,-0.019781448,-0.046958264,0.023312675,0.07046819,0.06467932,-0.012775625,0.0469444,0.02889678,0.033029575,0.070406236,-3.5067618e-08,-0.016494866,0.03278564,0.0265206,-0.033170413,-0.013527787,0.0059616687,-0.00649866,-0.0035872224,-0.04906761,0.020305147,0.027802924,-0.029836519,-0.071613126,-0.055307914,-0.03763272,0.07814326,-0.00074447226,0.092265114,-0.013994728,-0.00042971232,0.013272476,0.010346849,0.07391032,-0.0707909,-0.08000922,-0.032708526,-0.11076056,0.03955076,0.0271924,0.0052742753,0.025205161,-0.047468822,0.15332353,-0.06197417,0.02287261,0.07752779,-0.069760434,-0.04610684,0.023183132,0.047419183,0.018566433,0.017048575,-0.015282023,-0.016903188,0.0071733887,0.085077934,-0.019266717,0.026723003,-0.041846924,0.03354219,-0.016383694,-0.0053240433,-0.0836342,0.009927398,-0.054757394,0.033895664,-0.0145433685,-0.032721456,0.036149528,-0.012509828,0.027321858,-0.023822853,-0.07872995,0.0053098514
P12_1/c1,-0.080754116,0.021131653,-0.07319961,-0.07418056,-0.06596888,0.018419981,0.016425377,0.087443694,0.05462421,0.0034800833,0.08666089,0.0043791565,-0.08234795,0.02762688,-0.028939184,-0.04414276,-0.027064392,0.032730464,0.030559933,0.11159076,-0.016250718,-0.106030956,0.028969666,0.06251184,0.02115243,0.032205924,0.018742522,0.029419992,0.09211898,-0.07507237,0.058611188,0.047427952,-0.013270324,0.024519172,0.02648244,-0.050166957,-0.04602191,-0.010415764,0.00095747045,-0.009208276,0.0156081095,0.03668186,0.1110949,0.024852647,0.059882995,0.017609559,-0.034559928,-0.012959024,-0.041314445,-0.039184544,0.042701643,0.013389538,-0.079414815,0.06086419,0.030273398,0.035752296,-0.12286358,-0.00553477,0.09415578,-0.07930119,0.06145493,-0.055804513,-0.009097146,0.019550059,-0.07865067,-0.0013777552,-0.015025923,-0.05749832,0.016400503,0.0101397475,-0.048787713,0.0049279644,0.00838615,-0.031226933,0.023662243,0.022763705,0.041601095,-0.019458713,-0.018267738,-0.055671506,-0.022206414,0.026392262,-0.006933263,0.08998034,0.0044097677,-0.051471148,-0.044554207,0.028327435,0.013316038,-0.056306522,0.039849196,0.062706456,-0.07075038,-0.0753906,-0.0894317,0.017958794,0.07524383,-0.023379665,-0.021730823,0.030185167,0.06150523,0.050894264,0.045485962,-0.011296235,-0.07198062,0.04415256,-0.04140185,-0.015369918,0.016769305,-0.03332833,-0.04794921,-0.011864859,-0.054538455,-0.0768794,0.04712883,-0.08497552,-0.016347235,-0.021949256,0.06682336,0.02047353,-0.013013479,-0.040095862,-0.016244493,0.015510326,-0.081110165,0.045713812,-0.06643192,2.937756e-33,0.03217568,0.0717899,0.023636518,-0.02116975,0.028919078,-0.09580012,0.020182226,-0.065131046,-0.027201338,0.03738711,-0.052130006,-0.028621014,0.035645653,0.021889519,-0.051935297,-0.04567776,0.06895935,-0.065534584,0.03727581,-0.101624504,-0.042631697,0.10448564,0.0020967827,-0.016279336,0.02171482,0.04168418,0.027722914,0.035977144,-0.048191175,0.03893867,0.014200609,0.012712063,-0.09456442,0.016584655,0.045588575,-0.066594586,-0.033543084,-0.09474392,0.11419755,-0.14102465,0.06796433,-0.03238533,-0.009143077,0.023602255,0.054307286,-0.019763662,0.03644846,0.13020518,0.104338236,-0.017461203,0.035802674,0.044052277,-0.039425686,-0.029561931,0.011441065,0.083587795,0.0018761713,-0.033911187,-0.026136566,0.075409606,0.056116074,0.022694573,-0.06598682,-0.05287597,0.0076314365,0.019346109,-0.07202612,-0.031001298,0.06323407,-0.046723828,-0.053965095,0.012657084,0.04112691,0.022413312,0.04055538,0.025085207,-0.008715691,-0.05515962,0.056642115,0.09070297,-0.08629941,0.020950496,-0.07870182,-0.06629324,-0.10128247,-0.036426038,0.04839243,-0.09532353,-0.0042781043,-0.015410837,-0.036214575,-0.101211935,0.0008990198,0.07786135,-0.09704789,-4.4311993e-33,-0.027427286,-0.035720065,-0.029519374,0.026154941,-0.026249537,-0.032074768,0.042045414,-0.053579915,-0.012719361,0.054316666,0.09911343,0.03852563,-0.013827225,-0.051716384,0.059289575,0.026438965,-0.022165667,-0.0065639974,0.02957863,-0.03199011,0.09032613,0.035705272,-0.047566578,0.07293342,-0.03655357,0.032835893,0.036172386,-0.00092512625,0.009045203,0.15931927,0.019796161,-0.029856302,0.044042755,-0.009254364,-0.07411924,-0.078517824,-0.047619797,-0.052355472,-0.038919974,-0.041589066,0.018941281,0.0037178895,0.012011846,0.04126258,0.0473473,0.024778802,0.09496049,0.05556026,-0.034516156,-0.016537359,-0.07896919,0.026348537,0.040812775,0.015999192,0.041122716,-0.02203324,-0.038496733,-0.004384576,0.10281861,-0.04851781,0.052597094,-0.055005282,-0.027153749,0.0021661979,0.07890269,-0.019767392,0.014755548,-0.0693765,-0.03196158,0.034878243,0.03988862,0.010806653,0.041574333,-0.09072417,-0.026251525,-0.0383838,0.069816165,-0.03098278,0.014694206,-0.055937987,-0.035055786,-0.030065719,0.027067794,0.010622924,-0.048611425,-0.014039477,-0.023677826,0.042803288,0.05340833,0.054882575,-0.023470646,0.019556317,0.013996642,0.028538218,0.0756808,-4.182245e-08,-0.026935522,0.048291013,0.01778551,-0.04896347,-0.015305736,-0.00723619,-0.03476886,0.0031210433,-0.02227043,-0.004314834,0.045817494,-0.024954852,-0.06917168,-0.019462617,-0.038936045,0.085184716,-0.018243276,0.07487065,-0.004247018,-0.016079035,0.01931768,0.018459685,0.11240455,-0.09244258,-0.08792539,-0.02941385,-0.123828016,0.045644455,0.022025295,-0.010428874,0.047385454,-0.028832506,0.15569891,-0.035839807,0.034957528,0.08239071,-0.09357437,-0.01834109,0.037312325,0.040246766,0.018193418,0.017791199,-0.021588184,-0.015587491,-0.013554642,0.065599814,-0.01571892,0.008487253,-0.072489694,-0.011334373,0.008838847,0.013122282,-0.081013314,-0.018338311,-0.042151447,0.017061714,-0.01823391,-0.014289152,0.05074368,-0.0002751126,0.009454277,-0.038318846,-0.08797783,0.006241975
C12/c1,-0.0853909,-0.00656155,-0.06654152,-0.07468483,-0.007998716,-0.007952305,-0.009627522,0.060741,0.039143667,-0.0028856616,0.096014395,-0.047175605,-0.070116706,0.011787307,-0.030041937,-0.049050916,0.017950544,0.06294099,0.017587377,0.0773662,-0.05833381,-0.093045644,0.003577063,0.058095608,-0.0032366808,0.050868575,0.027880374,0.0012849566,0.019119551,-0.08210192,0.06830396,0.055409353,-0.0064574545,-0.010456001,-0.0345936,-0.07451566,-0.05606825,-0.007932165,0.0041802363,-0.027826488,-0.034968134,0.027298188,0.07771849,0.04586803,0.035412617,0.014508837,-0.043434136,-0.0020944942,-0.039146636,-0.020658914,0.0059074555,-0.039772887,-0.11367867,0.047589872,0.018861864,0.02428257,-0.11715515,0.0060503986,0.10857055,-0.07035068,0.056739427,-0.06182449,-0.040786892,0.027323326,-0.03689713,0.005798159,0.015047785,-0.07312845,0.03571574,0.017973905,-0.05026645,-0.02036698,-0.005121658,-0.03171875,0.042153176,0.02120933,0.056943182,-0.028481586,0.048287008,-0.04110411,-0.056520924,0.047911733,-0.01808258,0.08592894,-0.011098549,-0.023082016,-0.045410205,0.004168817,0.015955187,-0.024865434,-0.011875795,0.0829972,-0.052114896,-0.117715195,-0.13090447,0.035121012,0.072403826,0.007937257,-0.0145167755,0.036594838,0.03972424,-0.008501786,0.0818554,0.007374632,-0.023559438,0.0035064907,-0.02340488,-0.03563085,0.027229846,-0.0118335625,-0.028596323,0.02123694,-0.10399047,-0.10161367,0.031944014,-0.044349153,-0.009022597,-0.02717248,0.07282216,0.012055879,0.01835718,-0.044742733,-0.001891353,-0.04992786,-0.07646824,0.032743532,-0.05401982,1.322982e-33,-0.010032406,0.085781954,0.029466018,-0.016276706,0.020275973,-0.09117804,0.0070548807,-0.026565885,-0.014019603,0.05131005,-0.08250282,-0.0004655256,0.03757195,0.0028567372,-0.05676968,-0.02929871,0.069182396,-0.05954252,0.009472598,-0.12227952,-0.042870756,0.11581744,0.032798097,-0.026291521,-0.008371769,-0.01713197,0.02631519,0.0074511226,-0.028031627,0.041805282,0.054138128,0.05721297,-0.06469673,-0.0048338943,0.08638891,-0.0020216496,0.00392708,-0.106174126,0.12426257,-0.069726594,0.031007966,-0.030509392,-0.022710249,0.041736655,0.06515671,0.028119527,0.01155921,0.10249749,0.11278888,-0.017415445,0.010954478,0.044790693,-0.015080687,-0.006912367,0.02810592,0.090974934,0.019022813,-0.014384946,-0.050357033,0.053494964,0.040691037,0.010813761,-0.043016084,-0.060468946,-0.012183054,-0.019545943,-0.08319454,-0.03216518,0.06905719,-0.033383604,-0.030824222,0.016316438,0.052162275,0.030797439,0.05547269,0.02996199,0.01121587,-0.020988218,0.029777562,0.07609031,-0.1040004,0.04502062,-0.0947816,-0.09450463,-0.09238993,0.011025083,0.0014080068,-0.08778117,-0.011393119,-0.009619999,-0.07119653,-0.080028914,0.02765489,0.06109705,-0.10387396,-2.7437421e-33,-0.033985857,-0.03943245,-0.059426602,0.039223306,-0.007227715,-0.0072012367,0.06251628,-0.01927628,-0.04335386,0.034246735,0.12933265,-0.0065729506,-0.010442032,-0.041093256,0.081902795,0.0027163625,-0.02021088,-0.014175844,-0.023853166,0.011163111,0.098479174,-0.011922715,-0.056644324,0.048176132,-0.02362697,0.048848137,0.03074758,-0.011546454,0.03923492,0.13056162,0.033417292,-0.044763237,0.049744215,0.015049744,-0.040848613,-0.06424612,-0.033590548,-0.03905258,-0.054895986,-0.021260535,-0.0068117557,-0.0065034865,0.034993608,0.08938319,0.03660222,0.01497153,0.05672782,0.07020091,-0.048016768,-0.046678618,-0.038088474,-0.02178871,0.0028767854,0.02107829,0.015033119,0.039900217,-0.0014743516,5.721484e-05,0.10754526,-0.012513009,0.052407954,-0.020437237,-0.028005585,-0.03232592,0.06703693,-0.0391645,0.03141687,-0.094930075,-0.008061857,0.03233012,0.028483495,0.001858066,0.024609875,-0.09278406,-0.018953241,-0.051226906,0.10712683,-0.034066007,0.021135693,-0.024097333,-0.014420055,0.0134330075,0.06186646,0.024653224,-0.03198835,-0.016429558,-0.0703371,0.012121874,0.095799394,0.095003895,-0.036462575,0.047902983,-0.0063291467,0.021725848,0.075311646,-3.8178342e-08,0.0066877697,0.04938268,0.022205288,-0.03036655,-0.03193874,0.009906823,0.007213954,-0.047578495,-0.02440532,0.02817197,0.047124546,-0.011801405,-0.08398361,-0.042001028,-0.04373892,0.053805698,-0.012877784,0.12358369,0.0027830498,-0.012690351,0.006828642,0.020936826,0.101750165,-0.09185888,-0.05452097,-0.052814838,-0.10991102,0.07366808,0.0055491044,0.013068313,0.0050478037,-0.017997488,0.19214305,-0.04129173,0.025865695,0.040131576,-0.09405046,-0.030713687,0.027264476,0.031383622,0.030423407,0.047820877,-0.0013346785,0.0065144836,0.006364636,0.058285944,0.009293095,0.04669819,-0.05138828,0.023686359,-0.03485854,-0.028585618,-0.07714229,0.038511187,-0.030809345,-0.0062986105,-0.018322887,-0.04041321,0.017628876,-0.019873086,0.035686485,-0.0021887934,-0.077792354,0.018997064
P222,-0.06802417,0.024295766,-0.048166133,-0.06120178,0.038150907,0.039537035,-0.02071358,0.026110474,0.04312161,-0.0035731276,0.10850496,0.03559091,-0.038238708,0.055340648,0.019192526,-0.03344384,-0.060338277,0.015158408,0.024375059,0.10723141,-0.023425158,-0.06415512,0.0066450024,0.042849712,0.010180446,0.042302433,0.049357638,0.0551843,0.10789913,-0.045194276,0.024061574,0.08492623,-0.016816456,0.03010134,0.054628644,-0.023579102,-0.036995035,0.02335034,-0.06266113,-0.020070255,0.052313194,0.02347867,0.06401452,0.03968371,0.05355694,0.028856438,-0.008296032,-0.031293478,-0.07119754,-0.07728405,0.010975281,0.0043679853,-0.020234754,0.03857432,-0.021175541,0.019244138,-0.053895395,-0.037991688,0.07218429,-0.06388953,0.06461284,-0.06404616,-0.038389556,-0.0022041313,-0.026040606,0.04528197,0.0245585,-0.036004905,0.01201153,0.042794827,-0.006592865,0.026250647,-0.013225359,0.006592035,0.07718839,-0.0050757565,0.039869707,-0.052595615,0.0036347068,-0.07735932,-0.06350622,0.016102975,0.03871374,0.106399775,-0.01396793,-0.07700107,-0.0572244,0.050527338,0.020481778,-0.072735615,0.046053372,0.035968367,-0.08872696,-0.061931945,-0.056756377,0.04763118,0.03020327,-0.031966913,0.012154092,-0.018369308,0.09095485,0.0487346,0.022254737,0.014390595,0.014643298,0.009105664,-0.013101753,-0.0056453836,-0.0188792,0.021935366,-0.002469077,-0.002668621,-0.006884525,-0.0548101,0.057316978,-0.02232563,-0.048511606,0.03843345,0.026548324,0.021485,-0.00030084318,-0.027450081,-0.032843832,0.022534905,-0.06297652,0.029761892,-0.14130665,1.0821669e-33,0.054863367,0.12666923,0.034386832,-0.020300375,0.0006860974,-0.0091521405,-0.06755627,-0.05303853,-0.002602638,0.05444488,-0.08771917,-0.066399835,0.027323939,-0.0055737942,0.0068846107,-0.07469203,0.02014905,0.009196816,-0.0030280177,-0.023107879,-0.00092470687,0.17208776,-0.015385744,-0.036787774,0.07212064,0.040148433,0.058559544,-0.02156149,-0.035633884,0.019133914,0.06848361,-0.031986475,-0.12543364,-0.01983129,0.018133583,-0.045916084,-0.06212618,-0.07460642,0.052565094,-0.08794445,0.054465055,0.0154461395,-0.0048844866,0.016003475,0.0773755,-0.038444627,0.037080176,0.10279035,0.06555791,-0.03130455,0.035396636,0.06354578,-0.09762157,-0.027620634,-0.030605763,0.009281538,-0.039758045,-0.020311004,-0.030482683,0.02276874,0.12904137,0.016219985,-0.047043644,-0.06760511,-0.026679512,-0.03706135,-0.04549128,-0.06933987,0.051977683,0.002882679,-0.05365583,0.04780316,0.031276073,0.02398599,0.009181949,-0.017787635,-0.0007475204,-0.05470624,0.10561941,0.03888085,-0.11703796,-0.0032608472,-0.06534979,-0.061873775,-0.09758684,-0.046066243,0.037316598,-0.067640595,0.014124335,-0.006035514,-0.0097278645,-0.040208794,0.026748927,0.06523072,-0.11296505,-2.2727188e-33,-0.032483533,-0.042888213,-0.0012584041,0.0026258095,-0.010098293,-0.03995585,0.03727746,-0.003387765,-0.011272193,-0.03880102,0.092480384,-0.0048393114,0.0012577006,-0.074916124,0.13408995,0.03748476,-0.033087097,0.03571023,-0.0033809703,-0.022483831,0.02344156,0.023120977,-0.024078146,0.045949034,0.010770348,0.05632282,0.07283605,0.0200261,-0.0010849644,0.16204716,0.03620231,-0.0131255165,-0.023064975,0.009813815,-0.0659813,-0.06862605,-0.0609989,-0.06309961,-0.067962624,0.0027590257,0.018065307,0.09794909,0.04530794,0.11286786,0.010913935,0.023067473,0.09949199,0.0857634,-0.028545912,-0.06777089,-0.08031362,-0.010030458,0.045264363,-0.025376473,0.018391257,0.021513848,-0.09462103,-0.00702043,0.019335095,-0.036097508,0.055595007,-0.043678664,-0.011829075,-0.004005132,0.010834129,0.00043553318,0.045637738,-0.05911597,-0.064717874,0.021005072,0.00080629485,0.021533761,-0.060037073,-0.05423293,0.009667255,0.049523856,0.061066374,-0.008747125,0.002172031,-0.06376626,-0.029572058,0.0367921,-0.017127201,0.018920094,-0.0134154875,-0.056056276,-0.031082125,0.09973832,0.10712415,-0.009769567,-0.01098829,-0.023712926,0.0034285916,0.079007715,0.09598668,-3.221823e-08,-0.022910554,0.019107047,0.045164753,-0.036578484,-0.08377455,-0.07453103,0.046273895,-0.0070023956,-0.013865169,0.0154264625,0.025345104,-0.029866217,-0.11880781,-0.07243176,0.03364874,0.049153354,-0.008278241,0.09141529,-0.03406823,0.0018198024,0.0676863,-0.00038244805,0.021390289,-0.0237179,-0.11187423,0.044094212,-0.058972035,-0.0012967878,0.023389839,-0.02830032,0.08390092,-0.012358169,0.100842945,-0.01890319,-0.0048773107,0.05574529,-0.042441566,-0.02089835,0.06916433,-0.014754625,-0.0033275057,-0.059507534,-0.044795915,-0.016515862,0.034773115,0.06555701,0.046701115,0.039646655,-0.07014996,0.01265578,-0.0442276,-0.008920216,-0.016455455,-0.012765878,-0.09860963,0.034749795,-0.077225976,-0.020066436,0.042259492,-0.0618609,0.039983045,-0.05201103,-0.05368579,-0.02755663
P222_1,-0.06393874,0.010389332,-0.020651458,-0.05383941,0.05636926,0.034914464,-0.007779574,-0.0024723972,0.006372929,-0.0046556736,0.104282066,0.013102136,-0.054208074,0.025862947,0.00593565,-0.026401425,-0.06363596,-0.00294711,0.03369302,0.08743196,-0.007977062,-0.049576912,0.030109342,0.02364729,0.030620558,0.02871861,0.036199007,0.07767385,0.1013585,-0.059317462,0.03621853,0.05326801,-0.023651915,0.0047947764,0.05101719,-0.03683176,-0.02745166,0.029700743,-0.041092593,-0.028488103,0.057770204,0.008022109,0.06895758,0.03317784,0.034317616,-0.001006916,-0.04116032,0.003967779,-0.06218019,-0.0677593,-0.008814514,-0.0033309476,-0.018842848,0.018264916,-0.026674936,-0.011673754,-0.07467506,-0.04728502,0.055880714,-0.0866067,0.08352128,-0.059415013,-0.043583915,-0.028979253,-0.012542901,0.05983271,0.016648978,-0.072005026,0.010566844,0.029491434,-0.02097322,0.040858638,-0.0039764144,-0.0062046587,0.08330142,0.005098631,0.039573733,-0.053333316,-0.002446802,-0.08899313,-0.057373278,0.035273667,0.033126283,0.12359517,-0.02797402,-0.073301725,-0.03782466,0.08067759,0.045991477,-0.07022255,0.04159165,0.02648954,-0.07869407,-0.05549685,-0.06650788,0.05187798,0.0281637,-0.006688107,-0.01148102,0.006405851,0.08571183,0.059442516,0.056320213,-0.010928438,-0.023145463,0.03467074,-0.04489432,-0.001292409,0.0016752537,-0.006064277,-0.01670765,-0.016157422,-0.023465654,-0.057718992,0.06355,0.0034227292,-0.042337857,0.04986035,0.046619147,0.019563453,0.04069639,-0.02536745,-0.037828505,0.02237136,-0.09590871,0.019886587,-0.14154564,3.2176998e-33,0.064746164,0.09332877,0.035732415,0.02170756,0.0081593655,0.017497696,-0.07309796,-0.058105517,-0.022999942,0.051310528,-0.08775573,-0.07103938,0.062488258,-0.0019108885,0.002474626,-0.07003185,0.013124554,0.009469171,0.019786373,-0.027548356,0.013989814,0.17315628,-0.071946196,-0.01587034,0.065435484,0.028826417,0.058891535,-0.0063251634,-0.0052195494,0.018341796,0.051868267,-0.045737166,-0.103479676,0.0018087595,0.018162128,-0.05241725,-0.064354055,-0.05401249,0.071311,-0.090808615,0.07222385,0.032223266,0.0071283476,0.031993225,0.084325895,-0.053268664,0.051422037,0.09190669,0.0835856,-0.031333037,0.027373819,0.04146002,-0.09523875,-0.02764338,-0.027939824,0.030033477,-0.034077134,-0.00043070558,-0.016866213,0.010027483,0.13956642,0.0107380785,-0.024083983,-0.029539345,0.0009664563,-0.023250481,-0.015908353,-0.07110516,0.0832629,-0.008315606,-0.085027955,0.03707272,0.045689747,0.0030968543,0.016563984,-0.02682589,0.040701486,-0.083940744,0.09240551,0.020640131,-0.11763071,-0.0051956763,-0.06655954,-0.06660271,-0.096439496,-0.014219592,0.011820039,-0.09279297,0.016807428,-0.0013734045,0.0064126486,-0.052345186,-0.018942468,0.05839315,-0.08149078,-3.8489924e-33,-0.018215856,-0.044635225,0.015294949,-0.008632389,-0.019508163,-0.042593878,0.035678644,0.021800304,-0.009148898,-0.043022837,0.11575739,-0.034152072,-0.018325089,-0.072395734,0.13689756,0.05579039,-0.012159181,0.037178524,0.00951806,-0.005460419,0.020090645,0.03195448,-0.0114347385,0.04617367,-0.008150196,0.08863178,0.08856497,-0.0066378466,0.021941803,0.16329017,-0.0012083872,-0.0039497493,-0.03758275,-0.0028833847,-0.052841675,-0.057132162,-0.039005473,-0.04998716,-0.047644135,0.0013130227,0.0044139465,0.076015666,0.056562655,0.085738674,0.019722033,-0.0077108326,0.09311899,0.045185983,-0.027226921,-0.063735135,-0.0996892,-0.025258427,0.017657332,-0.025960442,0.011302019,0.021515068,-0.05862272,0.015134959,0.036347833,-0.016848758,0.06487613,-0.023449188,-0.00551808,0.020264443,0.010312277,-0.01797728,0.036054555,-0.06525662,-0.050016135,0.024884528,-0.028567735,-0.007508447,-0.024928913,-0.0609537,0.025593955,0.035569116,0.058513105,0.015123569,-0.0047079884,-0.051088095,-0.0041721375,0.033499032,-0.032479007,0.017978135,-0.021157114,-0.066791736,0.0090693,0.15037198,0.09102829,-0.009093702,-0.0014284704,0.0017751298,0.012305895,0.05017534,0.11200577,-3.4199196e-08,-0.0025051618,0.0020294378,0.024425788,-0.06348815,-0.06993829,-0.04390026,0.008754932,-0.002035679,-0.015447063,0.026027407,0.026474366,-0.005172435,-0.10575924,-0.06296323,-0.0050699115,0.05088546,-0.033955816,0.074686244,-0.040544927,-0.025633594,0.05590208,-0.016535627,0.033669066,-0.043452736,-0.11182953,0.030349115,-0.07436758,-0.014427306,0.02272802,-0.028673943,0.06862704,-0.04315392,0.11557059,-0.07364437,0.0015136277,0.081048556,-0.025727576,-0.05272196,0.07294403,-0.023723861,0.023738377,-0.062220525,-0.033030972,-0.025556153,0.03955309,0.031628415,0.028631588,0.05312593,-0.06915288,-0.008688277,-0.06699479,-0.014410688,-0.011333681,-0.033060454,-0.0957478,0.03362722,-0.06414385,0.0045686145,0.05807719,-0.052881945,0.018458981,-0.033819906,-0.071347915,-0.01341595
P2_12_12,-0.081301615,0.044640202,-0.06280676,-0.079236396,0.0061251,0.051516872,-0.047060132,0.030134732,0.062748276,0.0010772708,0.1255692,0.045547143,-0.06679729,-0.0018566573,-0.0062048375,-0.025266886,-0.085912086,0.053604595,-0.0014629907,0.11266052,-0.006289029,-0.06351794,0.045381032,0.012790661,0.015319958,0.007041719,0.03686774,0.06741295,0.12429604,-0.043728523,0.060744513,0.08037385,-0.034100343,0.016452994,0.03497771,-0.01132488,-0.0357318,0.026612429,-0.03255587,-0.011011732,0.04812343,-0.00051764643,0.07916356,0.01649526,0.08289749,0.0099611655,-0.071216814,0.0055261473,-0.039006475,-0.05833772,0.018386133,-0.008784848,-0.036121808,0.030079745,-0.0026023574,0.028146468,-0.101535775,-0.049584273,0.08127494,-0.07036494,0.0837497,-0.045165576,-0.021138541,-0.00283817,-0.038265172,0.021369455,-0.0058090207,-0.050341986,-0.006242872,0.04308552,-0.032543387,0.029414892,-0.005722493,-0.026639896,0.053758223,-0.009521827,0.024307951,-0.028750163,0.0005354384,-0.093478985,-0.047549713,0.04799773,0.031729598,0.11418219,-0.036131248,-0.096311785,-0.045554765,0.08739391,0.037384003,-0.060544163,0.05163188,0.035434354,-0.08234388,-0.052451797,-0.06891932,0.04415985,0.025982669,-0.015365062,-0.016552519,-0.0028441832,0.08075836,0.030637266,0.016848626,-0.019763546,-0.018738909,0.047038853,-0.031317256,-0.006119972,0.017219085,-0.023840608,-0.022259975,-0.024482498,-0.043224007,-0.034457482,0.050780512,-0.03620405,-0.036872283,0.016692765,0.067924775,0.004635442,0.02334413,-0.022605428,-0.06414735,0.030125573,-0.08357498,0.06867447,-0.104938075,2.8797422e-33,0.05673764,0.09726328,0.022083135,0.009933354,0.02094651,-0.011614032,-0.046866715,-0.09260148,-0.014526384,0.062886216,-0.07017044,-0.049383257,0.032153368,0.022229686,0.02046697,-0.0845179,0.02822373,0.020884942,0.030665549,-0.0438516,0.0012578744,0.1484714,-0.01675301,-0.03379578,0.06793964,0.048981655,0.07057755,-0.016552847,-0.030168181,0.025545945,0.0553151,-0.055395517,-0.100078315,-0.0017773514,0.008258381,-0.06049816,-0.059229292,-0.0605136,0.05153345,-0.13240044,0.07893391,0.033137225,-0.009789653,0.02796431,0.06354653,-0.04250919,0.06859499,0.095429964,0.093335755,-0.016903596,0.013184799,0.04551365,-0.057001583,-0.034814764,-0.0111088175,0.04065261,-0.014443847,0.004477591,-0.026439296,0.049815346,0.09207829,0.033260744,-0.026574122,-0.03351822,0.008286443,-0.026339449,-0.045924388,-0.06577147,0.06549253,-0.01774459,-0.085757084,0.033116397,0.015204324,0.024550885,-0.015638415,-0.024620034,0.024372993,-0.074573815,0.07360145,0.04935571,-0.10394134,0.039891165,-0.042801846,-0.07817936,-0.07870758,-0.0694829,0.017397081,-0.06548689,0.0020301056,-0.023506595,0.016483804,-0.06924239,-0.00024578284,0.051217515,-0.07190421,-3.890699e-33,-0.052201085,-0.021529105,-0.0030893248,-0.008929332,-0.016621422,-0.03346972,0.045950852,-0.0062296977,0.008709892,-0.001327373,0.07326515,0.022111414,0.00067378284,-0.067681566,0.1483405,0.04271892,-0.053951558,0.029185437,0.016983695,-0.040674448,0.042396035,0.055582628,-0.0057968246,0.055835932,0.006609581,0.08541107,0.080769315,0.0038549195,-0.021685803,0.14651187,0.014000701,-0.035244163,-0.022013819,0.01898846,-0.025989702,-0.06987762,-0.038684964,-0.060627688,-0.05565266,-0.019243667,0.02926523,0.073645465,0.02940982,0.10244148,-0.005493536,0.011241699,0.09628157,0.044729188,-0.06619259,-0.03568804,-0.10720486,-0.009010326,0.02833686,0.0005436444,0.019152038,-0.0318107,-0.06111317,-0.013077925,0.040246714,-0.029607877,0.045962792,-0.05704545,-0.013151176,0.006838354,0.0029239443,0.018423952,0.057740893,-0.0546824,-0.066753834,0.047760244,0.028733054,0.026877357,-0.031219654,-0.08819581,-0.0034230892,0.03329247,0.059781235,0.0014658095,0.009895933,-0.07240156,-0.042056963,0.0019755277,-0.015593135,0.030939063,-0.02721086,-0.051913947,0.014762609,0.13207786,0.059198402,0.024359215,-0.003055966,-0.027078176,0.0039757397,0.06069226,0.09139613,-3.656701e-08,-0.045766737,0.016734742,0.028943041,-0.066691294,-0.03275235,-0.06792091,-0.013855643,0.009311313,-0.038045906,0.013647673,0.029254343,-0.013826678,-0.09443762,-0.062677726,-0.011905454,0.0660346,-0.021543847,0.08976413,-0.05088308,-0.023258599,0.034959912,0.022677438,0.047859512,-0.02221453,-0.095498204,0.017625593,-0.08998715,-0.010510575,0.05885724,-0.030016966,0.08471886,-0.026258288,0.07882732,-0.042007547,0.009015033,0.09273713,-0.05521591,-0.030319806,0.05033739,0.005789087,0.00080460415,-0.07605656,-0.03682887,-0.03626501,0.011154774,0.048489813,0.010718439,0.018541489,-0.08835076,-0.021658784,-0.056396406,-0.028178921,-0.037594527,-0.028156344,-0.093718484,0.029983621,-0.05656706,-0.03830958,0.062015332,-0.021935863,0.01771758,-0.014808828,-0.059664913,0.0026160625
P2_12_12_1,-0.08582677,0.022462413,-0.07185944,-0.073629044,-0.0024159201,0.05187427,-0.04176328,0.041326642,0.039186966,-0.017322587,0.12011425,0.029121578,-0.066047974,0.007831142,0.0006414154,-0.027997991,-0.0927823,0.052200366,0.008497594,0.11012351,-0.0039406256,-0.056616783,0.04398717,0.013199398,0.030808209,-0.006448016,0.041361876,0.07238079,0.13260427,-0.06122947,0.079368725,0.051760063,-0.045041393,0.039103433,0.043902937,-0.03391482,-0.02872761,0.022704046,-0.033269968,-0.021510573,0.050853893,0.011195394,0.08012402,0.00093171414,0.040258583,0.013149888,-0.05478343,0.00965844,-0.03144205,-0.056144156,0.024279356,-0.0068993797,-0.036934566,0.0051164376,0.003058921,0.042986244,-0.09101629,-0.060151044,0.07911564,-0.07870185,0.08252945,-0.051370133,-0.048011623,-0.009434123,-0.061383557,0.028884925,-0.0125005655,-0.051029913,-0.008923425,0.02947365,-0.03207536,0.015062929,-0.0033952277,-0.032827303,0.050495163,0.019100117,0.009352501,-0.04572592,-0.019802192,-0.076326005,-0.051954523,0.042564366,0.039389897,0.11116965,-0.045936953,-0.07467468,-0.022415394,0.08529397,0.05216554,-0.065630905,0.06716991,0.035617508,-0.067847475,-0.065967984,-0.08129839,0.050731387,0.05231597,0.01003756,-0.02598586,0.0005596874,0.10578089,0.054485228,0.021959329,-0.036549248,0.0013782233,0.06988179,-0.026686717,0.0073098466,0.023447543,-0.03121516,-0.018974446,-0.023913715,-0.03856943,-0.030169819,0.033929333,-0.022188969,-0.0338264,0.011967384,0.061273303,0.0013840422,0.03004595,-0.0413001,-0.043026697,0.038424056,-0.07763526,0.06047869,-0.09460941,4.545141e-33,0.037389234,0.09218115,0.032392576,0.019016398,0.013737276,-0.0047223493,-0.02287519,-0.07060288,-0.009888582,0.033668675,-0.05748057,-0.060617294,0.030055968,0.035616055,-0.018863378,-0.08494485,0.01665507,0.0026304163,0.016881824,-0.022099636,0.006328688,0.14931478,-0.037879705,-0.0023718285,0.059268624,0.025057679,0.06777069,-0.010613226,-0.017659184,0.025231168,0.05483083,-0.051744394,-0.076676086,0.028067542,0.0032838122,-0.051891815,-0.0474897,-0.058520745,0.07465439,-0.13139255,0.091901265,0.02526241,-0.0046357107,0.027748883,0.08034144,-0.051130537,0.1010282,0.121119134,0.0655645,-0.030696278,0.006486645,0.061497744,-0.06400126,-0.027379597,-0.0058115134,0.03681846,-0.011820666,-0.0023275847,-0.019961795,0.06209029,0.09335211,0.023871485,-0.030684466,-0.006706719,0.028000852,-0.026236935,-0.051607836,-0.052424293,0.064875655,-0.010169716,-0.08307732,0.022352315,0.024218298,0.022247944,-0.018538456,-0.023748158,0.026126903,-0.09269093,0.05930077,0.020354806,-0.09735523,0.04619729,-0.046407294,-0.076943174,-0.09883051,-0.068890296,0.017621882,-0.08089036,-0.025888583,-0.015051262,0.034185536,-0.0777613,-0.022264317,0.054710016,-0.075553864,-4.930029e-33,-0.04746653,-0.026183823,0.0111182,-0.007848749,-0.01779934,-0.029324293,0.052092195,0.010986125,0.015314429,-0.0027566478,0.091543525,0.012501917,-0.00050966896,-0.08077445,0.12290335,0.032519024,-0.03502266,0.019517226,0.012966371,-0.02620208,0.032680634,0.068493746,-0.012088748,0.043667473,-0.0067678075,0.09605652,0.08063448,-0.007912742,-0.008053516,0.17768593,0.014179013,-0.027642863,-0.000120202094,0.017247004,-0.03059461,-0.073942035,-0.015830908,-0.066616334,-0.03420955,-0.02747995,0.017634653,0.054770492,0.020264627,0.07180382,0.026095726,0.007004151,0.08016516,0.046155725,-0.061770953,-0.039359547,-0.115603715,-0.010996255,0.038664766,0.00811006,0.01806589,-0.034895185,-0.046842117,-0.025666092,0.041980464,-0.03998617,0.03666211,-0.04563894,0.0058372756,-0.0017521398,0.010586456,-0.0042002783,0.03871378,-0.04216314,-0.061480485,0.05659785,0.005342135,0.017157542,-0.027938781,-0.0976315,-0.0014023994,0.02795932,0.05542153,-0.0005514776,8.00844e-05,-0.06609759,-0.051108714,0.00018553346,-0.033184644,0.011369705,-0.0135562355,-0.05736512,0.021946961,0.1404867,0.043002307,0.02454132,-0.015588222,-0.012700544,0.021567058,0.0601843,0.114757955,-4.049447e-08,-0.022067387,-0.0065842895,0.035344537,-0.07745556,-0.027781222,-0.058555197,-0.0079390425,0.014643933,-0.046318658,0.024613276,0.02769841,-0.016739922,-0.09471659,-0.046202827,-0.016005214,0.07085781,-0.041983284,0.063082024,-0.05282277,-0.04502126,0.017474193,0.0082204,0.045581277,-0.030794077,-0.1072742,0.029044112,-0.085745215,-0.0034073626,0.055856556,-0.020132558,0.081657045,-0.052302435,0.066330485,-0.057278275,0.011178542,0.09857602,-0.03999216,-0.035158012,0.064298876,-0.003949679,0.012574452,-0.05758975,-0.04092315,-0.027732935,0.022085354,0.042071916,0.009501595,0.034600165,-0.081613585,-0.01535684,-0.0704728,-0.019642822,-0.036616996,-0.05076181,-0.10692046,0.032026213,-0.06200427,-0.012262699,0.06472659,-0.010794188,0.0062435577,-0.00045175912,-0.059273813,0.013405078
C222_1,-0.07495212,0.00666055,-0.041006315,-0.01903634,0.014209526,0.047729135,-0.018338745,0.03222494,0.03430494,-0.0034795387,0.0990897,-0.021529164,-0.05849364,0.033462033,-0.017867537,-0.046696603,-0.086778805,0.019161211,0.004970737,0.078397006,0.024670256,-0.07514757,0.0075265057,0.016526831,0.008557723,0.03624396,0.053082235,0.03381506,0.08309431,-0.073150724,0.081439555,0.019066272,-0.04292589,0.018712351,0.007984498,-0.058624618,-0.015334633,0.017404374,-0.050749287,-0.028013004,-0.0015732478,0.02094948,0.06331102,0.055017307,-0.0028698351,0.0039177528,-0.03224987,0.020657742,-0.05251674,-0.080094256,-0.0041307746,-0.059062548,-0.038773537,0.011638073,0.0076260814,0.053161398,-0.08192515,-0.020279799,0.094472535,-0.07121102,0.067654334,-0.07025828,-0.051034253,-0.020968936,-0.04222449,0.086307,0.0038186347,-0.061494153,-0.005603934,0.05155609,-0.009928295,-0.013836406,-0.010732493,-0.008521296,0.061455883,0.012000814,0.05425315,-0.057956733,0.07976447,-0.060805157,-0.07078429,0.065599166,0.047346666,0.09968945,-0.07235249,-0.04471454,-0.03941501,0.05443945,0.055943124,-0.07381749,0.0018452221,0.048533924,-0.071208134,-0.10490818,-0.11093386,0.06284327,0.038030095,0.051521484,-0.024398165,0.015985245,0.09463869,0.014972654,0.05599726,-0.0091024125,0.001118702,0.050760202,-0.01180773,0.0022503855,0.00011235775,-0.011735972,-0.022473138,0.06267398,-0.07381453,-0.049968738,0.03375522,0.0065448903,0.0015871641,0.017190097,0.07243613,0.0015223463,0.051567327,-0.045402385,-0.035244856,-0.034183763,-0.08104934,0.04854275,-0.12316948,4.0793136e-33,0.0052136625,0.112407304,0.002097544,0.010838522,0.029760933,-0.062094793,-0.012232249,-0.031582836,0.0059700534,0.06121021,-0.10880932,-0.021269742,0.018774876,0.023688693,-0.06270261,-0.08437884,0.022600204,0.014489527,-0.024643794,-0.029110039,-0.002732225,0.13522504,-0.019107137,0.04269218,0.028102143,-0.014140048,0.081552416,-0.03793836,0.03316732,0.020957494,0.10637495,-0.027548831,-0.067911245,-0.008302063,0.048107263,-0.041097447,-0.058194708,-0.032941006,0.10090582,-0.06508057,0.06574207,0.046054006,-0.00352243,0.06643255,0.051858466,-0.02867447,0.052833855,0.074213885,0.08729071,-0.036534507,0.029917013,0.036998454,-0.0777266,-0.0074752336,-0.0100478465,0.055090018,-0.034701683,-0.017225873,-0.007579988,-0.00015460605,0.106491625,0.009068239,-0.033688143,-0.031200169,0.038614422,-0.01354353,-0.062394574,-0.04324819,0.04295591,-0.036695585,-0.06097739,0.029205514,0.045021392,0.040697753,-0.00705626,-0.0045056874,0.02645013,-0.08342414,0.038567528,0.04258404,-0.10568596,0.025669068,-0.069584705,-0.0998436,-0.088193,-0.015422165,0.017210277,-0.09544657,-0.01644868,-0.00065308774,-0.023826398,-0.08347299,0.02180179,0.046704862,-0.1138791,-4.4277474e-33,-0.04041636,-0.07929175,0.0018989204,-0.027688676,0.022863364,-0.006022364,0.06765901,0.017530615,0.013615952,-0.008647956,0.14245498,-0.0017759292,0.03129128,-0.05596055,0.09143658,0.017159713,-0.002367705,0.0030128718,-0.01180517,-0.032161843,0.015254192,0.022794576,-0.019648675,0.053192105,0.016793577,0.08434071,0.06939625,0.0022082378,0.04035222,0.17817803,0.032992795,-0.02606274,0.02408278,0.037344202,-0.0087710535,-0.045001008,-0.027945071,-0.07728831,-0.03660835,-0.025284596,-0.01096152,0.022470925,0.03849061,0.100339405,0.024500193,0.025022158,0.028918318,0.044019382,-0.08003479,-0.0825218,-0.084663704,-0.034646787,0.010146337,-0.0055778427,-0.019758511,0.008279288,-0.03973276,-0.008245047,0.05563925,0.0243994,0.051376313,-0.031138217,0.0073090154,-0.03549181,0.0068848515,-0.015008817,0.044363227,-0.072071195,-0.044860557,0.03159664,0.019620959,0.0028508103,-0.029549792,-0.060387574,0.021578638,-0.001621984,0.054830313,0.0034180202,-0.011858697,-0.039491393,-0.030347355,0.035787933,-0.008724829,0.030760985,0.005364178,-0.07425322,-0.00363487,0.11849237,0.07955825,0.040545844,-0.036156405,-0.0092860665,-0.0102666095,0.050105006,0.129086,-4.075143e-08,0.017419964,0.006040572,0.0385185,-0.099749975,-0.036500473,-0.048371527,0.019318959,-0.04033014,-0.032270983,0.0022905981,0.01706977,0.0014062363,-0.10623118,-0.05687219,-0.053989988,0.04500932,-0.062064312,0.12454445,-0.013285403,-0.024509486,0.053582586,0.01610128,0.083981946,-0.08068046,-0.07151001,-0.0069529014,-0.06261293,0.021971717,-0.021881197,-0.0050998763,0.04686057,-0.0033390648,0.09548791,-0.050019134,0.032168526,0.07402187,-0.05286385,-0.021531077,0.019176437,-0.032393888,0.05693802,-0.044652324,-0.009687823,-0.00413983,0.032168645,0.015836114,0.028436083,0.07551546,-0.04232163,-0.02724689,-0.074070595,-0.030758258,-0.053243157,-0.00079045614,-0.115697086,-0.017019775,-0.057703465,-0.023626901,0.053760942,-0.03907547,0.038255762,0.0072272206,-0.0615152,0.025231892
